<?xml version="1.0"?>
<opencv_storage>
<cascade>
  <stageType>BOOST</stageType>
  <featureType>HAAR</featureType>
  <height>20</height>
  <width>20</width>
  <stageParams>
    <boostType>GAB</boostType>
    <minHitRate>9.9500000476837158e-01</minHitRate>
    <maxFalseAlarm>5.0000000000000000e-01</maxFalseAlarm>
    <weightTrimRate>9.4999999999999996e-01</weightTrimRate>
    <maxDepth>1</maxDepth>
    <maxWeakCount>100</maxWeakCount></stageParams>
  <featureParams>
    <maxCatCount>0</maxCatCount>
    <featSize>1</featSize>
    <mode>ALL</mode></featureParams>
  <stageNum>20</stageNum>
  <stages>
    <!-- stage 0 -->
    <_>
      <maxWeakCount>16</maxWeakCount>
      <stageThreshold>-8.7842333316802979e-01</stageThreshold>
      <weakClassifiers>
        <_>
          <internalNodes>
            0 -1 144 -9.0427458286285400e-02</internalNodes>
          <leafValues>
            5.5208331346511841e-01 -2.7956989407539368e-01</leafValues></_>
        <_>
          <internalNodes>
            0 -1 163 1.4797300100326538e-03</internalNodes>
          <leafValues>
            2.8103891015052795e-01 -4.1346818208694458e-01</leafValues></_>
        <_>
          <internalNodes>
            0 -1 2 2.2747972252545878e-05</internalNodes>
          <leafValues>
            2.3064012825489044e-01 -3.2996529340744019e-01</leafValues></_>
        <_>
          <internalNodes>
            0 -1 343 -4.9959052354097366e-02</internalNodes>
          <leafValues>
            1.1868903785943985e-01 -7.0514714717864990e-01</leafValues></_>
        <_>
          <internalNodes>
            0 -1 123 5.8404883020557463e-05</internalNodes>
          <leafValues>
            2.5403827428817749e-01 -3.7827780842781067e-01</leafValues></_>
        <_>
          <internalNodes>
            0 -1 774 -5.7171350345015526e-03</internalNodes>
          <leafValues>
            6.1372530460357666e-01 -1.4386692643165588e-01</leafValues></_>
        <_>
          <internalNodes>
            0 -1 668 8.5454451618716121e-04</internalNodes>
          <leafValues>
            3.1214806437492371e-01 -2.6697209477424622e-01</leafValues></_>
        <_>
          <internalNodes>
            0 -1 461 -8.3142396761104465e-05</internalNodes>
          <leafValues>
            -4.4318297505378723e-01 1.2350822985172272e-01</leafValues></_>
        <_>
          <internalNodes>
            0 -1 690 1.4599624555557966e-03</internalNodes>
          <leafValues>
            2.1717427670955658e-01 -3.3087509870529175e-01</leafValues></_>
        <_>
          <internalNodes>
            0 -1 539 4.5516397804021835e-03</internalNodes>
          <leafValues>
            3.1454211473464966e-01 -2.5136706233024597e-01</leafValues></_>
        <_>
          <internalNodes>
            0 -1 446 -5.7477637892588973e-04</internalNodes>
          <leafValues>
            5.0519394874572754e-01 -1.4891107380390167e-01</leafValues></_>
        <_>
          <internalNodes>
            0 -1 600 1.3744832249358296e-03</internalNodes>
          <leafValues>
            1.9432665407657623e-01 -4.1068723797798157e-01</leafValues></_>
        <_>
          <internalNodes>
            0 -1 446 4.7518353676423430e-04</internalNodes>
          <leafValues>
            -1.5783284604549408e-01 4.8323291540145874e-01</leafValues></_>
        <_>
          <internalNodes>
            0 -1 9 -5.9076538309454918e-03</internalNodes>
          <leafValues>
            -3.6916202306747437e-01 2.0298585295677185e-01</leafValues></_>
        <_>
          <internalNodes>
            0 -1 369 -7.7666167635470629e-04</internalNodes>
          <leafValues>
            5.4313480854034424e-01 -1.5172918140888214e-01</leafValues></_>
        <_>
          <internalNodes>
            0 -1 78 1.1618254939094186e-04</internalNodes>
          <leafValues>
            2.2624759376049042e-01 -3.0784884095191956e-01</leafValues></_></weakClassifiers></_>
    <!-- stage 1 -->
    <_>
      <maxWeakCount>16</maxWeakCount>
      <stageThreshold>-7.6998019218444824e-01</stageThreshold>
      <weakClassifiers>
        <_>
          <internalNodes>
            0 -1 106 -3.8070091977715492e-04</internalNodes>
          <leafValues>
            7.4766352772712708e-02 -9.0740740299224854e-01</leafValues></_>
        <_>
          <internalNodes>
            0 -1 65 -3.7974055157974362e-04</internalNodes>
          <leafValues>
            -5.0433033704757690e-01 2.1978780627250671e-01</leafValues></_>
        <_>
          <internalNodes>
            0 -1 65 6.4027216285467148e-04</internalNodes>
          <leafValues>
            3.0429849028587341e-01 -3.9154589176177979e-01</leafValues></_>
        <_>
          <internalNodes>
            0 -1 14 -2.5385147891938686e-03</internalNodes>
          <leafValues>
            -3.6375886201858521e-01 1.8809874355792999e-01</leafValues></_>
        <_>
          <internalNodes>
            0 -1 166 4.4672883814200759e-04</internalNodes>
          <leafValues>
            2.3091062903404236e-01 -3.6443525552749634e-01</leafValues></_>
        <_>
          <internalNodes>
            0 -1 108 -1.2690031144302338e-04</internalNodes>
          <leafValues>
            4.9364157021045685e-02 -8.3441513776779175e-01</leafValues></_>
        <_>
          <internalNodes>
            0 -1 695 1.1427230201661587e-03</internalNodes>
          <leafValues>
            2.1101230382919312e-01 -2.9563996195793152e-01</leafValues></_>
        <_>
          <internalNodes>
            0 -1 788 5.6204665452241898e-04</internalNodes>
          <leafValues>
            -1.5202111005783081e-01 4.3034356832504272e-01</leafValues></_>
        <_>
          <internalNodes>
            0 -1 242 7.1840104646980762e-04</internalNodes>
          <leafValues>
            2.1596740186214447e-01 -3.2139039039611816e-01</leafValues></_>
        <_>
          <internalNodes>
            0 -1 185 -1.7633199458941817e-03</internalNodes>
          <leafValues>
            3.2757037878036499e-01 -1.8644329905509949e-01</leafValues></_>
        <_>
          <internalNodes>
            0 -1 549 1.5201176211121492e-05</internalNodes>
          <leafValues>
            2.2319471836090088e-01 -2.9111871123313904e-01</leafValues></_>
        <_>
          <internalNodes>
            0 -1 446 1.2931595556437969e-03</internalNodes>
          <leafValues>
            -9.0851381421089172e-02 8.4224534034729004e-01</leafValues></_>
        <_>
          <internalNodes>
            0 -1 441 1.6934823943302035e-03</internalNodes>
          <leafValues>
            -1.4080694317817688e-01 4.9336138367652893e-01</leafValues></_>
        <_>
          <internalNodes>
            0 -1 507 -5.8883884776150808e-05</internalNodes>
          <leafValues>
            -3.6475554108619690e-01 1.7879909276962280e-01</leafValues></_>
        <_>
          <internalNodes>
            0 -1 783 -5.3678604308515787e-04</internalNodes>
          <leafValues>
            5.2169269323348999e-01 -1.2276820093393326e-01</leafValues></_>
        <_>
          <internalNodes>
            0 -1 555 -1.5742540359497070e-02</internalNodes>
          <leafValues>
            -1.5995542705059052e-01 4.5863720774650574e-01</leafValues></_></weakClassifiers></_>
    <!-- stage 2 -->
    <_>
      <maxWeakCount>16</maxWeakCount>
      <stageThreshold>-8.2733482122421265e-01</stageThreshold>
      <weakClassifiers>
        <_>
          <internalNodes>
            0 -1 172 -3.1479877233505249e-01</internalNodes>
          <leafValues>
            1.1557789146900177e-01 -7.7777779102325439e-01</leafValues></_>
        <_>
          <internalNodes>
            0 -1 370 -2.0648472127504647e-04</internalNodes>
          <leafValues>
            -4.1882401704788208e-01 1.8300652503967285e-01</leafValues></_>
        <_>
          <internalNodes>
            0 -1 345 7.2285666828975081e-04</internalNodes>
          <leafValues>
            2.5862959027290344e-01 -4.1364628076553345e-01</leafValues></_>
        <_>
          <internalNodes>
            0 -1 425 4.3148808181285858e-03</internalNodes>
          <leafValues>
            -1.3308718800544739e-01 6.8304395675659180e-01</leafValues></_>
        <_>
          <internalNodes>
            0 -1 493 1.0748126078397036e-03</internalNodes>
          <leafValues>
            1.6537082195281982e-01 -4.3703553080558777e-01</leafValues></_>
        <_>
          <internalNodes>
            0 -1 389 7.5610750354826450e-04</internalNodes>
          <leafValues>
            -9.1036446392536163e-02 8.1270807981491089e-01</leafValues></_>
        <_>
          <internalNodes>
            0 -1 419 3.4106718376278877e-03</internalNodes>
          <leafValues>
            -9.9065139889717102e-02 7.7541071176528931e-01</leafValues></_>
        <_>
          <internalNodes>
            0 -1 902 1.5144097851589322e-03</internalNodes>
          <leafValues>
            1.7134790122509003e-01 -4.0826055407524109e-01</leafValues></_>
        <_>
          <internalNodes>
            0 -1 344 -4.1383743518963456e-04</internalNodes>
          <leafValues>
            -3.5948181152343750e-01 1.9540183246135712e-01</leafValues></_>
        <_>
          <internalNodes>
            0 -1 424 -1.6148510621860623e-04</internalNodes>
          <leafValues>
            4.0239274501800537e-01 -1.6677205264568329e-01</leafValues></_>
        <_>
          <internalNodes>
            0 -1 803 1.3263858854770660e-03</internalNodes>
          <leafValues>
            -7.6735332608222961e-02 7.9486739635467529e-01</leafValues></_>
        <_>
          <internalNodes>
            0 -1 698 -1.0655930964276195e-03</internalNodes>
          <leafValues>
            -3.9116349816322327e-01 1.7607535421848297e-01</leafValues></_>
        <_>
          <internalNodes>
            0 -1 804 -5.2052661776542664e-03</internalNodes>
          <leafValues>
            8.7095391750335693e-01 -8.1623986363410950e-02</leafValues></_>
        <_>
          <internalNodes>
            0 -1 526 4.5825932174921036e-02</internalNodes>
          <leafValues>
            1.6107499599456787e-01 -4.1967183351516724e-01</leafValues></_>
        <_>
          <internalNodes>
            0 -1 881 -3.6177009344100952e-02</internalNodes>
          <leafValues>
            9.0460434556007385e-02 -6.3935780525207520e-01</leafValues></_>
        <_>
          <internalNodes>
            0 -1 65 8.3840097067877650e-04</internalNodes>
          <leafValues>
            2.3910824954509735e-01 -3.4405323863029480e-01</leafValues></_></weakClassifiers></_>
    <!-- stage 3 -->
    <_>
      <maxWeakCount>22</maxWeakCount>
      <stageThreshold>-7.6938664913177490e-01</stageThreshold>
      <weakClassifiers>
        <_>
          <internalNodes>
            0 -1 392 -4.5899264514446259e-03</internalNodes>
          <leafValues>
            4.9844235181808472e-02 -7.5925928354263306e-01</leafValues></_>
        <_>
          <internalNodes>
            0 -1 65 -8.1150610640179366e-05</internalNodes>
          <leafValues>
            -3.8307148218154907e-01 1.5960121154785156e-01</leafValues></_>
        <_>
          <internalNodes>
            0 -1 65 5.5241285735974088e-05</internalNodes>
          <leafValues>
            2.3295123875141144e-01 -3.0023610591888428e-01</leafValues></_>
        <_>
          <internalNodes>
            0 -1 109 -3.2196968793869019e-02</internalNodes>
          <leafValues>
            7.9113051295280457e-02 -7.4418807029724121e-01</leafValues></_>
        <_>
          <internalNodes>
            0 -1 899 -1.4489046297967434e-02</internalNodes>
          <leafValues>
            -1.1476321518421173e-01 7.2894883155822754e-01</leafValues></_>
        <_>
          <internalNodes>
            0 -1 48 2.7657540515065193e-02</internalNodes>
          <leafValues>
            -2.1336685121059418e-01 4.4242417812347412e-01</leafValues></_>
        <_>
          <internalNodes>
            0 -1 789 -1.0671775043010712e-01</internalNodes>
          <leafValues>
            7.3707109689712524e-01 -6.4416907727718353e-02</leafValues></_>
        <_>
          <internalNodes>
            0 -1 874 2.3518971283920109e-04</internalNodes>
          <leafValues>
            -1.7045015096664429e-01 3.6460590362548828e-01</leafValues></_>
        <_>
          <internalNodes>
            0 -1 876 -3.6484585143625736e-03</internalNodes>
          <leafValues>
            7.0308154821395874e-01 -7.5990855693817139e-02</leafValues></_>
        <_>
          <internalNodes>
            0 -1 665 -4.8497818410396576e-02</internalNodes>
          <leafValues>
            -5.2605181932449341e-01 1.1528449505567551e-01</leafValues></_>
        <_>
          <internalNodes>
            0 -1 642 1.1710675898939371e-03</internalNodes>
          <leafValues>
            1.7403025925159454e-01 -3.6379453539848328e-01</leafValues></_>
        <_>
          <internalNodes>
            0 -1 383 1.8472268711775541e-03</internalNodes>
          <leafValues>
            -1.9156414270401001e-01 3.4107080101966858e-01</leafValues></_>
        <_>
          <internalNodes>
            0 -1 99 1.5661757206544280e-03</internalNodes>
          <leafValues>
            1.0582400113344193e-01 -6.5188217163085938e-01</leafValues></_>
        <_>
          <internalNodes>
            0 -1 637 -2.4675386957824230e-03</internalNodes>
          <leafValues>
            5.8794289827346802e-01 -1.2890499830245972e-01</leafValues></_>
        <_>
          <internalNodes>
            0 -1 489 1.8503335304558277e-03</internalNodes>
          <leafValues>
            1.9833564758300781e-01 -3.0573356151580811e-01</leafValues></_>
        <_>
          <internalNodes>
            0 -1 181 3.2759350724518299e-03</internalNodes>
          <leafValues>
            -8.2710862159729004e-02 7.0041471719741821e-01</leafValues></_>
        <_>
          <internalNodes>
            0 -1 783 -3.1008233781903982e-04</internalNodes>
          <leafValues>
            4.0921148657798767e-01 -1.2835368514060974e-01</leafValues></_>
        <_>
          <internalNodes>
            0 -1 783 3.3501311554573476e-04</internalNodes>
          <leafValues>
            -1.7117822170257568e-01 4.6376544237136841e-01</leafValues></_>
        <_>
          <internalNodes>
            0 -1 62 -4.6239886432886124e-03</internalNodes>
          <leafValues>
            -4.0957209467887878e-01 1.7173923552036285e-01</leafValues></_>
        <_>
          <internalNodes>
            0 -1 42 5.8876387774944305e-03</internalNodes>
          <leafValues>
            1.7184898257255554e-01 -3.7473741173744202e-01</leafValues></_>
        <_>
          <internalNodes>
            0 -1 161 -1.2257779599167407e-04</internalNodes>
          <leafValues>
            3.4152275323867798e-01 -1.9269730150699615e-01</leafValues></_>
        <_>
          <internalNodes>
            0 -1 879 -9.2010293155908585e-03</internalNodes>
          <leafValues>
            -6.4843785762786865e-01 9.5130749046802521e-02</leafValues></_></weakClassifiers></_>
    <!-- stage 4 -->
    <_>
      <maxWeakCount>20</maxWeakCount>
      <stageThreshold>-7.4073070287704468e-01</stageThreshold>
      <weakClassifiers>
        <_>
          <internalNodes>
            0 -1 527 -8.3720886707305908e-01</internalNodes>
          <leafValues>
            3.4707903861999512e-01 -3.2897603511810303e-01</leafValues></_>
        <_>
          <internalNodes>
            0 -1 497 -5.1738650654442608e-05</internalNodes>
          <leafValues>
            -2.9024386405944824e-01 2.1184897422790527e-01</leafValues></_>
        <_>
          <internalNodes>
            0 -1 756 1.8926449120044708e-03</internalNodes>
          <leafValues>
            -1.5045274794101715e-01 4.0220889449119568e-01</leafValues></_>
        <_>
          <internalNodes>
            0 -1 803 2.1038128761574626e-04</internalNodes>
          <leafValues>
            -2.0089969038963318e-01 3.0448940396308899e-01</leafValues></_>
        <_>
          <internalNodes>
            0 -1 300 8.1581296399235725e-03</internalNodes>
          <leafValues>
            -5.8261018246412277e-02 6.1180853843688965e-01</leafValues></_>
        <_>
          <internalNodes>
            0 -1 339 2.6127483579330146e-04</internalNodes>
          <leafValues>
            2.0544241368770599e-01 -3.2575714588165283e-01</leafValues></_>
        <_>
          <internalNodes>
            0 -1 696 8.3494111895561218e-03</internalNodes>
          <leafValues>
            8.1048980355262756e-02 -7.7224391698837280e-01</leafValues></_>
        <_>
          <internalNodes>
            0 -1 82 2.7693891897797585e-03</internalNodes>
          <leafValues>
            1.7238916456699371e-01 -3.7465777993202209e-01</leafValues></_>
        <_>
          <internalNodes>
            0 -1 744 -3.0512429773807526e-02</internalNodes>
          <leafValues>
            7.9904258251190186e-01 -1.1402426660060883e-01</leafValues></_>
        <_>
          <internalNodes>
            0 -1 36 -6.1305295675992966e-03</internalNodes>
          <leafValues>
            -3.5165050625801086e-01 1.8900318443775177e-01</leafValues></_>
        <_>
          <internalNodes>
            0 -1 750 -6.4587565138936043e-03</internalNodes>
          <leafValues>
            8.9987650513648987e-02 -4.8626762628555298e-01</leafValues></_>
        <_>
          <internalNodes>
            0 -1 19 -4.7827177331782877e-04</internalNodes>
          <leafValues>
            -3.0069732666015625e-01 2.3216548562049866e-01</leafValues></_>
        <_>
          <internalNodes>
            0 -1 19 3.7732592318207026e-04</internalNodes>
          <leafValues>
            1.7376136779785156e-01 -3.2917898893356323e-01</leafValues></_>
        <_>
          <internalNodes>
            0 -1 660 -4.9325637519359589e-03</internalNodes>
          <leafValues>
            3.4045389294624329e-01 -1.7631214857101440e-01</leafValues></_>
        <_>
          <internalNodes>
            0 -1 315 4.9524675123393536e-03</internalNodes>
          <leafValues>
            -1.1114509403705597e-01 5.9179562330245972e-01</leafValues></_>
        <_>
          <internalNodes>
            0 -1 592 4.7150615602731705e-02</internalNodes>
          <leafValues>
            8.7143547832965851e-02 -8.3308780193328857e-01</leafValues></_>
        <_>
          <internalNodes>
            0 -1 623 -2.1087668836116791e-02</internalNodes>
          <leafValues>
            3.6454039812088013e-01 -1.6511768102645874e-01</leafValues></_>
        <_>
          <internalNodes>
            0 -1 641 -1.0344633832573891e-02</internalNodes>
          <leafValues>
            -5.0081008672714233e-01 1.1258864402770996e-01</leafValues></_>
        <_>
          <internalNodes>
            0 -1 615 -3.6177709698677063e-02</internalNodes>
          <leafValues>
            -5.4608207941055298e-01 1.0248040407896042e-01</leafValues></_>
        <_>
          <internalNodes>
            0 -1 95 -7.4618220329284668e-02</internalNodes>
          <leafValues>
            -8.7636774778366089e-01 5.6346241384744644e-02</leafValues></_></weakClassifiers></_>
    <!-- stage 5 -->
    <_>
      <maxWeakCount>18</maxWeakCount>
      <stageThreshold>-7.5094318389892578e-01</stageThreshold>
      <weakClassifiers>
        <_>
          <internalNodes>
            0 -1 17 -4.3782667489722371e-04</internalNodes>
          <leafValues>
            -3.9130434393882751e-01 1.2236286699771881e-01</leafValues></_>
        <_>
          <internalNodes>
            0 -1 19 1.9383832113817334e-04</internalNodes>
          <leafValues>
            1.8617630004882813e-01 -3.3329725265502930e-01</leafValues></_>
        <_>
          <internalNodes>
            0 -1 366 -1.0929057316388935e-04</internalNodes>
          <leafValues>
            2.9104644060134888e-01 -1.9612379372119904e-01</leafValues></_>
        <_>
          <internalNodes>
            0 -1 329 -5.3560364246368408e-01</internalNodes>
          <leafValues>
            -1.7210915684700012e-01 3.1607010960578918e-01</leafValues></_>
        <_>
          <internalNodes>
            0 -1 769 -6.2519882339984179e-04</internalNodes>
          <leafValues>
            5.8683421462774277e-02 -8.5894560813903809e-01</leafValues></_>
        <_>
          <internalNodes>
            0 -1 8 -5.9319881256669760e-04</internalNodes>
          <leafValues>
            -3.3828946948051453e-01 2.0871758460998535e-01</leafValues></_>
        <_>
          <internalNodes>
            0 -1 492 1.4985630987212062e-03</internalNodes>
          <leafValues>
            2.4263402819633484e-01 -2.9944670200347900e-01</leafValues></_>
        <_>
          <internalNodes>
            0 -1 492 -8.9456723071634769e-04</internalNodes>
          <leafValues>
            -4.1930690407752991e-01 1.7812004685401917e-01</leafValues></_>
        <_>
          <internalNodes>
            0 -1 26 -4.9114376306533813e-02</internalNodes>
          <leafValues>
            6.2001538276672363e-01 -1.3711385428905487e-01</leafValues></_>
        <_>
          <internalNodes>
            0 -1 581 -3.1318853143602610e-04</internalNodes>
          <leafValues>
            3.7061685323715210e-01 -1.1319343745708466e-01</leafValues></_>
        <_>
          <internalNodes>
            0 -1 424 1.0327133350074291e-03</internalNodes>
          <leafValues>
            -1.3612718880176544e-01 5.5320388078689575e-01</leafValues></_>
        <_>
          <internalNodes>
            0 -1 424 -7.2830892167985439e-04</internalNodes>
          <leafValues>
            5.2795946598052979e-01 -8.7716557085514069e-02</leafValues></_>
        <_>
          <internalNodes>
            0 -1 194 -5.2468109061010182e-05</internalNodes>
          <leafValues>
            -3.3552908897399902e-01 1.5504132211208344e-01</leafValues></_>
        <_>
          <internalNodes>
            0 -1 446 -1.0865639342227951e-04</internalNodes>
          <leafValues>
            3.4213194251060486e-01 -1.4000572264194489e-01</leafValues></_>
        <_>
          <internalNodes>
            0 -1 594 -1.6684313304722309e-03</internalNodes>
          <leafValues>
            -6.5795171260833740e-01 7.7538952231407166e-02</leafValues></_>
        <_>
          <internalNodes>
            0 -1 505 -4.1878243791870773e-04</internalNodes>
          <leafValues>
            2.9000219702720642e-01 -2.0280839502811432e-01</leafValues></_>
        <_>
          <internalNodes>
            0 -1 13 -3.3197593688964844e-01</internalNodes>
          <leafValues>
            -1.7423450946807861e-01 3.0883121490478516e-01</leafValues></_>
        <_>
          <internalNodes>
            0 -1 877 -1.8451130017638206e-04</internalNodes>
          <leafValues>
            3.2058998942375183e-01 -1.7470343410968781e-01</leafValues></_></weakClassifiers></_>
    <!-- stage 6 -->
    <_>
      <maxWeakCount>17</maxWeakCount>
      <stageThreshold>-8.2723492383956909e-01</stageThreshold>
      <weakClassifiers>
        <_>
          <internalNodes>
            0 -1 16 -5.8597500901669264e-04</internalNodes>
          <leafValues>
            -4.8251748085021973e-01 1.8965516984462738e-01</leafValues></_>
        <_>
          <internalNodes>
            0 -1 233 -1.6329995123669505e-03</internalNodes>
          <leafValues>
            -4.3647846579551697e-01 1.9745153188705444e-01</leafValues></_>
        <_>
          <internalNodes>
            0 -1 492 1.1558237019926310e-04</internalNodes>
          <leafValues>
            2.6374953985214233e-01 -3.1264871358871460e-01</leafValues></_>
        <_>
          <internalNodes>
            0 -1 492 -7.6213292777538300e-04</internalNodes>
          <leafValues>
            -3.6199849843978882e-01 2.2860649228096008e-01</leafValues></_>
        <_>
          <internalNodes>
            0 -1 274 8.7589171016588807e-04</internalNodes>
          <leafValues>
            2.1856041252613068e-01 -3.1074482202529907e-01</leafValues></_>
        <_>
          <internalNodes>
            0 -1 820 1.0580024681985378e-03</internalNodes>
          <leafValues>
            1.0141879320144653e-01 -4.5226421952247620e-01</leafValues></_>
        <_>
          <internalNodes>
            0 -1 517 -8.9335860684514046e-04</internalNodes>
          <leafValues>
            -4.3993526697158813e-01 1.2462711334228516e-01</leafValues></_>
        <_>
          <internalNodes>
            0 -1 416 2.7730908244848251e-02</internalNodes>
          <leafValues>
            -1.3281129300594330e-01 4.3239498138427734e-01</leafValues></_>
        <_>
          <internalNodes>
            0 -1 593 -5.2206253167241812e-04</internalNodes>
          <leafValues>
            3.5418975353240967e-01 -1.5990464389324188e-01</leafValues></_>
        <_>
          <internalNodes>
            0 -1 174 1.1951514752581716e-03</internalNodes>
          <leafValues>
            1.7221416532993317e-01 -3.5085415840148926e-01</leafValues></_>
        <_>
          <internalNodes>
            0 -1 140 -4.6884290874004364e-02</internalNodes>
          <leafValues>
            -1.1507853865623474e-01 4.8885110020637512e-01</leafValues></_>
        <_>
          <internalNodes>
            0 -1 751 4.5728292316198349e-03</internalNodes>
          <leafValues>
            -9.2941813170909882e-02 6.0938382148742676e-01</leafValues></_>
        <_>
          <internalNodes>
            0 -1 30 1.3528030831366777e-04</internalNodes>
          <leafValues>
            -1.8081291019916534e-01 3.0100899934768677e-01</leafValues></_>
        <_>
          <internalNodes>
            0 -1 246 5.4636923596262932e-04</internalNodes>
          <leafValues>
            2.1467216312885284e-01 -2.9959899187088013e-01</leafValues></_>
        <_>
          <internalNodes>
            0 -1 482 9.7436993382871151e-04</internalNodes>
          <leafValues>
            8.1000439822673798e-02 -4.9244016408920288e-01</leafValues></_>
        <_>
          <internalNodes>
            0 -1 394 -4.9087725346907973e-04</internalNodes>
          <leafValues>
            4.3794763088226318e-01 -1.2670953571796417e-01</leafValues></_>
        <_>
          <internalNodes>
            0 -1 485 -3.9822034887038171e-04</internalNodes>
          <leafValues>
            -5.9826219081878662e-01 9.3560196459293365e-02</leafValues></_></weakClassifiers></_>
    <!-- stage 7 -->
    <_>
      <maxWeakCount>25</maxWeakCount>
      <stageThreshold>-1.0738909244537354e+00</stageThreshold>
      <weakClassifiers>
        <_>
          <internalNodes>
            0 -1 23 -3.7704564630985260e-02</internalNodes>
          <leafValues>
            1.5315315127372742e-01 -6.9230771064758301e-01</leafValues></_>
        <_>
          <internalNodes>
            0 -1 424 -4.6409937203861773e-04</internalNodes>
          <leafValues>
            6.0977280139923096e-01 -1.5339833498001099e-01</leafValues></_>
        <_>
          <internalNodes>
            0 -1 424 2.2041899501346052e-04</internalNodes>
          <leafValues>
            -1.7501053214073181e-01 5.2297204732894897e-01</leafValues></_>
        <_>
          <internalNodes>
            0 -1 252 3.5565185546875000e-01</internalNodes>
          <leafValues>
            1.5658517181873322e-01 -4.8287627100944519e-01</leafValues></_>
        <_>
          <internalNodes>
            0 -1 69 7.8125199070200324e-04</internalNodes>
          <leafValues>
            2.0044279098510742e-01 -3.6212581396102905e-01</leafValues></_>
        <_>
          <internalNodes>
            0 -1 480 -3.3744508982636034e-05</internalNodes>
          <leafValues>
            3.0444064736366272e-01 -1.7936341464519501e-01</leafValues></_>
        <_>
          <internalNodes>
            0 -1 196 1.4482850208878517e-02</internalNodes>
          <leafValues>
            9.5291666686534882e-02 -4.7289717197418213e-01</leafValues></_>
        <_>
          <internalNodes>
            0 -1 226 1.6088758129626513e-03</internalNodes>
          <leafValues>
            -9.9283277988433838e-02 6.1728614568710327e-01</leafValues></_>
        <_>
          <internalNodes>
            0 -1 5 -7.9723866656422615e-04</internalNodes>
          <leafValues>
            -4.8969766497612000e-01 1.3482041656970978e-01</leafValues></_>
        <_>
          <internalNodes>
            0 -1 446 1.0708029731176794e-04</internalNodes>
          <leafValues>
            -1.8816897273063660e-01 3.6895483732223511e-01</leafValues></_>
        <_>
          <internalNodes>
            0 -1 446 -3.3716572215780616e-04</internalNodes>
          <leafValues>
            4.3605583906173706e-01 -1.4403896033763885e-01</leafValues></_>
        <_>
          <internalNodes>
            0 -1 762 9.3252025544643402e-04</internalNodes>
          <leafValues>
            1.7976114153862000e-01 -3.8793945312500000e-01</leafValues></_>
        <_>
          <internalNodes>
            0 -1 348 6.2150170560926199e-04</internalNodes>
          <leafValues>
            -1.6419427096843719e-01 3.4522441029548645e-01</leafValues></_>
        <_>
          <internalNodes>
            0 -1 846 2.2561885416507721e-03</internalNodes>
          <leafValues>
            1.4850816130638123e-01 -3.4230470657348633e-01</leafValues></_>
        <_>
          <internalNodes>
            0 -1 379 3.0749365687370300e-03</internalNodes>
          <leafValues>
            -1.9290654361248016e-01 2.7900451421737671e-01</leafValues></_>
        <_>
          <internalNodes>
            0 -1 643 2.1626820787787437e-02</internalNodes>
          <leafValues>
            1.6461628675460815e-01 -3.6235976219177246e-01</leafValues></_>
        <_>
          <internalNodes>
            0 -1 775 5.1651918329298496e-03</internalNodes>
          <leafValues>
            -1.1023785918951035e-01 4.8417526483535767e-01</leafValues></_>
        <_>
          <internalNodes>
            0 -1 291 -1.1280577164143324e-03</internalNodes>
          <leafValues>
            6.1388826370239258e-01 -7.9936116933822632e-02</leafValues></_>
        <_>
          <internalNodes>
            0 -1 388 6.4165499061346054e-03</internalNodes>
          <leafValues>
            1.0846005380153656e-01 -5.8166748285293579e-01</leafValues></_>
        <_>
          <internalNodes>
            0 -1 598 1.7446165438741446e-03</internalNodes>
          <leafValues>
            -1.4763519167900085e-01 3.7218835949897766e-01</leafValues></_>
        <_>
          <internalNodes>
            0 -1 498 2.1084863692522049e-04</internalNodes>
          <leafValues>
            1.7090266942977905e-01 -3.1251516938209534e-01</leafValues></_>
        <_>
          <internalNodes>
            0 -1 400 1.2919948494527489e-04</internalNodes>
          <leafValues>
            -1.4044840633869171e-01 4.2090475559234619e-01</leafValues></_>
        <_>
          <internalNodes>
            0 -1 812 -2.5108326226472855e-02</internalNodes>
          <leafValues>
            -8.5385406017303467e-01 8.1919945776462555e-02</leafValues></_>
        <_>
          <internalNodes>
            0 -1 250 1.3047939166426659e-02</internalNodes>
          <leafValues>
            -8.9262552559375763e-02 8.0847972631454468e-01</leafValues></_>
        <_>
          <internalNodes>
            0 -1 59 2.0027198479510844e-04</internalNodes>
          <leafValues>
            1.7103572189807892e-01 -3.3541196584701538e-01</leafValues></_></weakClassifiers></_>
    <!-- stage 8 -->
    <_>
      <maxWeakCount>100</maxWeakCount>
      <stageThreshold>-1.8360072374343872e+00</stageThreshold>
      <weakClassifiers>
        <_>
          <internalNodes>
            0 -1 263 -1.4106681942939758e-01</internalNodes>
          <leafValues>
            3.2812500000000000e-01 -9.1596639156341553e-01</leafValues></_>
        <_>
          <internalNodes>
            0 -1 908 -1.4873126056045294e-03</internalNodes>
          <leafValues>
            4.5147676020860672e-02 -7.5694417953491211e-01</leafValues></_>
        <_>
          <internalNodes>
            0 -1 287 -5.2468785725068301e-05</internalNodes>
          <leafValues>
            -4.0982857346534729e-01 1.8636552989482880e-01</leafValues></_>
        <_>
          <internalNodes>
            0 -1 771 3.6462629213929176e-04</internalNodes>
          <leafValues>
            -1.8450488150119781e-01 3.6485192179679871e-01</leafValues></_>
        <_>
          <internalNodes>
            0 -1 280 5.0335400737822056e-04</internalNodes>
          <leafValues>
            1.8696661293506622e-01 -3.4029182791709900e-01</leafValues></_>
        <_>
          <internalNodes>
            0 -1 202 3.6680151242762804e-04</internalNodes>
          <leafValues>
            -1.2952809035778046e-01 4.6585553884506226e-01</leafValues></_>
        <_>
          <internalNodes>
            0 -1 231 5.5603130022063851e-04</internalNodes>
          <leafValues>
            1.2142062932252884e-01 -4.5875817537307739e-01</leafValues></_>
        <_>
          <internalNodes>
            0 -1 509 3.4691463224589825e-04</internalNodes>
          <leafValues>
            -1.2669478356838226e-01 5.8737897872924805e-01</leafValues></_>
        <_>
          <internalNodes>
            0 -1 446 7.5543313869275153e-05</internalNodes>
          <leafValues>
            -1.3491337001323700e-01 3.6065337061882019e-01</leafValues></_>
        <_>
          <internalNodes>
            0 -1 164 2.6872078888118267e-04</internalNodes>
          <leafValues>
            1.8457315862178802e-01 -3.1446978449821472e-01</leafValues></_>
        <_>
          <internalNodes>
            0 -1 346 9.1713350266218185e-03</internalNodes>
          <leafValues>
            -9.5679059624671936e-02 6.5375375747680664e-01</leafValues></_>
        <_>
          <internalNodes>
            0 -1 731 3.8354541175067425e-04</internalNodes>
          <leafValues>
            1.0642943531274796e-01 -6.5137243270874023e-01</leafValues></_>
        <_>
          <internalNodes>
            0 -1 885 -1.5053665265440941e-03</internalNodes>
          <leafValues>
            4.7906905412673950e-01 -1.3711668550968170e-01</leafValues></_>
        <_>
          <internalNodes>
            0 -1 834 3.2309126108884811e-03</internalNodes>
          <leafValues>
            1.4736795425415039e-01 -4.2545738816261292e-01</leafValues></_>
        <_>
          <internalNodes>
            0 -1 732 -6.6294376738369465e-03</internalNodes>
          <leafValues>
            6.9361150264739990e-01 -1.0464411228895187e-01</leafValues></_>
        <_>
          <internalNodes>
            0 -1 425 -2.8697708621621132e-03</internalNodes>
          <leafValues>
            4.8476511240005493e-01 -8.0557607114315033e-02</leafValues></_>
        <_>
          <internalNodes>
            0 -1 617 -4.9487128853797913e-04</internalNodes>
          <leafValues>
            -6.4999300241470337e-01 1.0064615309238434e-01</leafValues></_>
        <_>
          <internalNodes>
            0 -1 805 1.5714054461568594e-04</internalNodes>
          <leafValues>
            -1.7276473343372345e-01 3.4452188014984131e-01</leafValues></_>
        <_>
          <internalNodes>
            0 -1 904 -5.7937612291425467e-04</internalNodes>
          <leafValues>
            -4.7431913018226624e-01 1.3833372294902802e-01</leafValues></_>
        <_>
          <internalNodes>
            0 -1 906 -4.8662954941391945e-03</internalNodes>
          <leafValues>
            4.9948132038116455e-01 -1.1085217446088791e-01</leafValues></_>
        <_>
          <internalNodes>
            0 -1 142 7.2009593714028597e-04</internalNodes>
          <leafValues>
            -1.5032210946083069e-01 3.6885911226272583e-01</leafValues></_>
        <_>
          <internalNodes>
            0 -1 249 -4.1877356125041842e-04</internalNodes>
          <leafValues>
            -4.3729245662689209e-01 1.6727919876575470e-01</leafValues></_>
        <_>
          <internalNodes>
            0 -1 424 1.0768171632662416e-03</internalNodes>
          <leafValues>
            -9.9947698414325714e-02 6.6899365186691284e-01</leafValues></_>
        <_>
          <internalNodes>
            0 -1 572 -2.0501337945461273e-02</internalNodes>
          <leafValues>
            -8.4228461980819702e-01 8.3006225526332855e-02</leafValues></_>
        <_>
          <internalNodes>
            0 -1 243 -3.1512882560491562e-04</internalNodes>
          <leafValues>
            3.4879842400550842e-01 -1.4607550203800201e-01</leafValues></_>
        <_>
          <internalNodes>
            0 -1 97 -1.4735959121026099e-04</internalNodes>
          <leafValues>
            -3.0456677079200745e-01 1.9256834685802460e-01</leafValues></_>
        <_>
          <internalNodes>
            0 -1 299 -7.2928424924612045e-04</internalNodes>
          <leafValues>
            3.7524488568305969e-01 -1.3403797149658203e-01</leafValues></_>
        <_>
          <internalNodes>
            0 -1 717 8.4241182776167989e-04</internalNodes>
          <leafValues>
            1.2851749360561371e-01 -4.4058361649513245e-01</leafValues></_>
        <_>
          <internalNodes>
            0 -1 821 -7.3765550041571259e-05</internalNodes>
          <leafValues>
            3.3370786905288696e-01 -1.7858564853668213e-01</leafValues></_>
        <_>
          <internalNodes>
            0 -1 465 1.3060411438345909e-02</internalNodes>
          <leafValues>
            1.3199885189533234e-01 -5.5968242883682251e-01</leafValues></_>
        <_>
          <internalNodes>
            0 -1 787 4.0930573595687747e-04</internalNodes>
          <leafValues>
            -9.7958862781524658e-02 5.3656888008117676e-01</leafValues></_>
        <_>
          <internalNodes>
            0 -1 20 1.7406899482011795e-02</internalNodes>
          <leafValues>
            9.4719439744949341e-02 -6.0112202167510986e-01</leafValues></_>
        <_>
          <internalNodes>
            0 -1 467 3.5586273297667503e-03</internalNodes>
          <leafValues>
            -1.0962697118520737e-01 4.8905238509178162e-01</leafValues></_>
        <_>
          <internalNodes>
            0 -1 525 -2.9455195181071758e-04</internalNodes>
          <leafValues>
            -3.4206655621528625e-01 1.5885716676712036e-01</leafValues></_>
        <_>
          <internalNodes>
            0 -1 868 3.1371638178825378e-03</internalNodes>
          <leafValues>
            -7.1723029017448425e-02 7.3242706060409546e-01</leafValues></_>
        <_>
          <internalNodes>
            0 -1 146 1.9530311226844788e-02</internalNodes>
          <leafValues>
            1.1695338040590286e-01 -4.5887342095375061e-01</leafValues></_>
        <_>
          <internalNodes>
            0 -1 24 -7.1014622226357460e-03</internalNodes>
          <leafValues>
            4.3758085370063782e-01 -1.1292885988950729e-01</leafValues></_>
        <_>
          <internalNodes>
            0 -1 636 -1.0007413802668452e-03</internalNodes>
          <leafValues>
            -8.0828011035919189e-01 5.4449371993541718e-02</leafValues></_>
        <_>
          <internalNodes>
            0 -1 87 6.4742998220026493e-03</internalNodes>
          <leafValues>
            -1.4655512571334839e-01 3.2891830801963806e-01</leafValues></_>
        <_>
          <internalNodes>
            0 -1 582 -1.0989283910021186e-03</internalNodes>
          <leafValues>
            -5.1826858520507813e-01 9.0914972126483917e-02</leafValues></_>
        <_>
          <internalNodes>
            0 -1 710 2.2711185738444328e-03</internalNodes>
          <leafValues>
            -6.3423521816730499e-02 6.7286163568496704e-01</leafValues></_>
        <_>
          <internalNodes>
            0 -1 811 -8.0962795764207840e-03</internalNodes>
          <leafValues>
            -9.6299517154693604e-01 4.7609835863113403e-02</leafValues></_>
        <_>
          <internalNodes>
            0 -1 831 4.8907380551099777e-04</internalNodes>
          <leafValues>
            -1.0183727741241455e-01 4.2676559090614319e-01</leafValues></_>
        <_>
          <internalNodes>
            0 -1 878 1.1935851216549054e-04</internalNodes>
          <leafValues>
            9.7199700772762299e-02 -4.9562075734138489e-01</leafValues></_>
        <_>
          <internalNodes>
            0 -1 674 -5.5294958874583244e-03</internalNodes>
          <leafValues>
            8.6393350362777710e-01 -4.6506002545356750e-02</leafValues></_>
        <_>
          <internalNodes>
            0 -1 833 9.2222690582275391e-03</internalNodes>
          <leafValues>
            1.1540060490369797e-01 -3.6550018191337585e-01</leafValues></_>
        <_>
          <internalNodes>
            0 -1 513 -3.8091592490673065e-02</internalNodes>
          <leafValues>
            8.8429403305053711e-01 -3.6850571632385254e-02</leafValues></_>
        <_>
          <internalNodes>
            0 -1 470 -4.9823578447103500e-03</internalNodes>
          <leafValues>
            4.9143677949905396e-01 -6.4851000905036926e-02</leafValues></_>
        <_>
          <internalNodes>
            0 -1 760 6.9223009631969035e-05</internalNodes>
          <leafValues>
            9.3108877539634705e-02 -4.0258666872978210e-01</leafValues></_>
        <_>
          <internalNodes>
            0 -1 407 3.3569606603123248e-04</internalNodes>
          <leafValues>
            -1.1243743449449539e-01 3.6870303750038147e-01</leafValues></_>
        <_>
          <internalNodes>
            0 -1 349 1.5542686742264777e-04</internalNodes>
          <leafValues>
            9.4366237521171570e-02 -4.1090431809425354e-01</leafValues></_>
        <_>
          <internalNodes>
            0 -1 655 6.3578155823051929e-04</internalNodes>
          <leafValues>
            -1.0066994279623032e-01 3.7381103634834290e-01</leafValues></_>
        <_>
          <internalNodes>
            0 -1 565 5.5167302489280701e-03</internalNodes>
          <leafValues>
            6.8136103451251984e-02 -5.4263150691986084e-01</leafValues></_>
        <_>
          <internalNodes>
            0 -1 342 -3.7985017988830805e-03</internalNodes>
          <leafValues>
            4.1419005393981934e-01 -1.0064456611871719e-01</leafValues></_>
        <_>
          <internalNodes>
            0 -1 159 2.2884446661919355e-04</internalNodes>
          <leafValues>
            1.0708773136138916e-01 -4.2538625001907349e-01</leafValues></_>
        <_>
          <internalNodes>
            0 -1 534 2.5160849094390869e-02</internalNodes>
          <leafValues>
            -5.7943854480981827e-02 6.2217128276824951e-01</leafValues></_>
        <_>
          <internalNodes>
            0 -1 57 5.3776585264131427e-04</internalNodes>
          <leafValues>
            9.5454789698123932e-02 -3.8245600461959839e-01</leafValues></_>
        <_>
          <internalNodes>
            0 -1 864 -1.5237188199535012e-04</internalNodes>
          <leafValues>
            3.4272041916847229e-01 -1.0318373143672943e-01</leafValues></_>
        <_>
          <internalNodes>
            0 -1 290 4.7622504644095898e-03</internalNodes>
          <leafValues>
            5.1347322762012482e-02 -5.3751218318939209e-01</leafValues></_>
        <_>
          <internalNodes>
            0 -1 889 1.5317348297685385e-03</internalNodes>
          <leafValues>
            -6.5798595547676086e-02 5.4311352968215942e-01</leafValues></_>
        <_>
          <internalNodes>
            0 -1 143 -3.1795818358659744e-05</internalNodes>
          <leafValues>
            -3.4443330764770508e-01 9.8152980208396912e-02</leafValues></_>
        <_>
          <internalNodes>
            0 -1 455 1.0680224513635039e-03</internalNodes>
          <leafValues>
            -4.6419225633144379e-02 7.6913213729858398e-01</leafValues></_>
        <_>
          <internalNodes>
            0 -1 781 2.1808249875903130e-03</internalNodes>
          <leafValues>
            4.5319061726331711e-02 -7.6889526844024658e-01</leafValues></_>
        <_>
          <internalNodes>
            0 -1 673 3.6074395757168531e-04</internalNodes>
          <leafValues>
            -7.4687309563159943e-02 5.2742469310760498e-01</leafValues></_>
        <_>
          <internalNodes>
            0 -1 533 4.3459958396852016e-03</internalNodes>
          <leafValues>
            3.8620781153440475e-02 -7.6646149158477783e-01</leafValues></_>
        <_>
          <internalNodes>
            0 -1 212 9.6437245607376099e-02</internalNodes>
          <leafValues>
            2.7303250506520271e-02 -9.5274555683135986e-01</leafValues></_>
        <_>
          <internalNodes>
            0 -1 330 2.6623278390616179e-03</internalNodes>
          <leafValues>
            -5.6962296366691589e-02 4.9995589256286621e-01</leafValues></_>
        <_>
          <internalNodes>
            0 -1 495 1.2773800699505955e-04</internalNodes>
          <leafValues>
            6.8630419671535492e-02 -3.7881508469581604e-01</leafValues></_>
        <_>
          <internalNodes>
            0 -1 310 2.8690180624835193e-04</internalNodes>
          <leafValues>
            -8.3265945315361023e-02 4.0164241194725037e-01</leafValues></_>
        <_>
          <internalNodes>
            0 -1 358 -7.1904709329828620e-05</internalNodes>
          <leafValues>
            -4.6864002943038940e-01 6.1218872666358948e-02</leafValues></_>
        <_>
          <internalNodes>
            0 -1 88 1.0386751091573387e-04</internalNodes>
          <leafValues>
            -5.9678710997104645e-02 4.8419111967086792e-01</leafValues></_>
        <_>
          <internalNodes>
            0 -1 604 2.5246330187655985e-04</internalNodes>
          <leafValues>
            5.7055510580539703e-02 -4.3535465002059937e-01</leafValues></_>
        <_>
          <internalNodes>
            0 -1 89 -3.3605523640289903e-04</internalNodes>
          <leafValues>
            4.9502113461494446e-01 -5.7292550802230835e-02</leafValues></_>
        <_>
          <internalNodes>
            0 -1 160 -3.3327785786241293e-04</internalNodes>
          <leafValues>
            -4.1273239254951477e-01 6.6576592624187469e-02</leafValues></_>
        <_>
          <internalNodes>
            0 -1 244 -3.2427846454083920e-03</internalNodes>
          <leafValues>
            4.5013096928596497e-01 -5.8450236916542053e-02</leafValues></_>
        <_>
          <internalNodes>
            0 -1 571 -1.1044320464134216e-01</internalNodes>
          <leafValues>
            -6.9185298681259155e-01 3.3190835267305374e-02</leafValues></_>
        <_>
          <internalNodes>
            0 -1 785 -1.0009938850998878e-02</internalNodes>
          <leafValues>
            7.9895770549774170e-01 -2.9576020315289497e-02</leafValues></_>
        <_>
          <internalNodes>
            0 -1 239 -1.1998524889349937e-02</internalNodes>
          <leafValues>
            -5.7733839750289917e-01 4.9945734441280365e-02</leafValues></_>
        <_>
          <internalNodes>
            0 -1 295 3.4026281355181709e-05</internalNodes>
          <leafValues>
            -6.2607437372207642e-02 4.1391476988792419e-01</leafValues></_>
        <_>
          <internalNodes>
            0 -1 341 1.4630004297941923e-03</internalNodes>
          <leafValues>
            4.3904736638069153e-02 -4.7731941938400269e-01</leafValues></_>
        <_>
          <internalNodes>
            0 -1 350 5.6124487891793251e-03</internalNodes>
          <leafValues>
            -2.4972675368189812e-02 6.9134718179702759e-01</leafValues></_>
        <_>
          <internalNodes>
            0 -1 760 8.5857417434453964e-04</internalNodes>
          <leafValues>
            1.5109338797628880e-02 -8.5069215297698975e-01</leafValues></_>
        <_>
          <internalNodes>
            0 -1 733 -3.6049440503120422e-02</internalNodes>
          <leafValues>
            7.6965034008026123e-01 -2.5949247181415558e-02</leafValues></_>
        <_>
          <internalNodes>
            0 -1 814 2.1635174751281738e-02</internalNodes>
          <leafValues>
            2.6185786351561546e-02 -8.5148823261260986e-01</leafValues></_>
        <_>
          <internalNodes>
            0 -1 168 2.1271497011184692e-02</internalNodes>
          <leafValues>
            -1.8182061612606049e-02 1.</leafValues></_>
        <_>
          <internalNodes>
            0 -1 314 1.6941064968705177e-03</internalNodes>
          <leafValues>
            4.4494088739156723e-02 -4.8577004671096802e-01</leafValues></_>
        <_>
          <internalNodes>
            0 -1 312 1.1376320617273450e-04</internalNodes>
          <leafValues>
            -5.4965600371360779e-02 4.5003917813301086e-01</leafValues></_>
        <_>
          <internalNodes>
            0 -1 519 -1.6292813234031200e-03</internalNodes>
          <leafValues>
            -6.0785287618637085e-01 2.2169161587953568e-02</leafValues></_>
        <_>
          <internalNodes>
            0 -1 662 3.4170035272836685e-02</internalNodes>
          <leafValues>
            -2.0836787298321724e-02 7.9564869403839111e-01</leafValues></_>
        <_>
          <internalNodes>
            0 -1 360 1.9881241023540497e-02</internalNodes>
          <leafValues>
            2.8906276449561119e-02 -6.3785356283187866e-01</leafValues></_>
        <_>
          <internalNodes>
            0 -1 355 -2.7230996638536453e-02</internalNodes>
          <leafValues>
            8.8706910610198975e-01 -1.6243994235992432e-02</leafValues></_>
        <_>
          <internalNodes>
            0 -1 176 -3.9431095123291016e-01</internalNodes>
          <leafValues>
            -9.3990236520767212e-01 1.4649403281509876e-02</leafValues></_>
        <_>
          <internalNodes>
            0 -1 86 -3.1461147591471672e-03</internalNodes>
          <leafValues>
            6.6051506996154785e-01 -2.4475917220115662e-02</leafValues></_>
        <_>
          <internalNodes>
            0 -1 579 -4.6592010185122490e-03</internalNodes>
          <leafValues>
            -7.1795213222503662e-01 2.1318828687071800e-02</leafValues></_>
        <_>
          <internalNodes>
            0 -1 428 5.6671686470508575e-03</internalNodes>
          <leafValues>
            -1.5334580093622208e-02 8.2805579900741577e-01</leafValues></_>
        <_>
          <internalNodes>
            0 -1 137 -4.5039702672511339e-04</internalNodes>
          <leafValues>
            -4.3340501189231873e-01 3.4422755241394043e-02</leafValues></_>
        <_>
          <internalNodes>
            0 -1 898 -2.0960476831533015e-04</internalNodes>
          <leafValues>
            4.8337143659591675e-01 -3.9993498474359512e-02</leafValues></_>
        <_>
          <internalNodes>
            0 -1 35 -4.9334822688251734e-04</internalNodes>
          <leafValues>
            -6.3316452503204346e-01 2.0213216543197632e-02</leafValues></_>
        <_>
          <internalNodes>
            0 -1 794 -1.1747300159186125e-03</internalNodes>
          <leafValues>
            1. -8.8631585240364075e-03</leafValues></_>
        <_>
          <internalNodes>
            0 -1 845 6.9683399051427841e-03</internalNodes>
          <leafValues>
            1.6357941552996635e-02 -7.3908525705337524e-01</leafValues></_></weakClassifiers></_>
    <!-- stage 9 -->
    <_>
      <maxWeakCount>22</maxWeakCount>
      <stageThreshold>-7.9756420850753784e-01</stageThreshold>
      <weakClassifiers>
        <_>
          <internalNodes>
            0 -1 713 -1.6707135736942291e-01</internalNodes>
          <leafValues>
            8.9010989665985107e-01 -1.9878603518009186e-01</leafValues></_>
        <_>
          <internalNodes>
            0 -1 65 -3.7133711157366633e-04</internalNodes>
          <leafValues>
            -3.2740056514739990e-01 2.1844860911369324e-01</leafValues></_>
        <_>
          <internalNodes>
            0 -1 496 5.7916818186640739e-03</internalNodes>
          <leafValues>
            6.4320877194404602e-02 -5.3602397441864014e-01</leafValues></_>
        <_>
          <internalNodes>
            0 -1 719 -1.1245390772819519e-01</internalNodes>
          <leafValues>
            1.6820178925991058e-01 -3.6096262931823730e-01</leafValues></_>
        <_>
          <internalNodes>
            0 -1 203 2.7276813052594662e-03</internalNodes>
          <leafValues>
            1.0900370031595230e-01 -5.9132593870162964e-01</leafValues></_>
        <_>
          <internalNodes>
            0 -1 803 -7.3726766277104616e-04</internalNodes>
          <leafValues>
            5.3137117624282837e-01 -9.4597034156322479e-02</leafValues></_>
        <_>
          <internalNodes>
            0 -1 803 2.2948153491597623e-04</internalNodes>
          <leafValues>
            -1.5522412955760956e-01 3.2596349716186523e-01</leafValues></_>
        <_>
          <internalNodes>
            0 -1 645 -3.6860007094219327e-04</internalNodes>
          <leafValues>
            -4.0949326753616333e-01 1.2568448483943939e-01</leafValues></_>
        <_>
          <internalNodes>
            0 -1 853 -1.1690654791891575e-03</internalNodes>
          <leafValues>
            -3.5112193226814270e-01 1.4660437405109406e-01</leafValues></_>
        <_>
          <internalNodes>
            0 -1 548 -8.0515053123235703e-03</internalNodes>
          <leafValues>
            8.1712037324905396e-01 -6.5726630389690399e-02</leafValues></_>
        <_>
          <internalNodes>
            0 -1 850 3.6388146691024303e-04</internalNodes>
          <leafValues>
            1.6060644388198853e-01 -3.6573219299316406e-01</leafValues></_>
        <_>
          <internalNodes>
            0 -1 783 8.3476759027689695e-04</internalNodes>
          <leafValues>
            -8.7911784648895264e-02 5.8175146579742432e-01</leafValues></_>
        <_>
          <internalNodes>
            0 -1 136 1.0944867972284555e-04</internalNodes>
          <leafValues>
            2.0636238157749176e-01 -2.5304314494132996e-01</leafValues></_>
        <_>
          <internalNodes>
            0 -1 813 -4.8758774995803833e-02</internalNodes>
          <leafValues>
            8.0392636358737946e-02 -5.4455155134201050e-01</leafValues></_>
        <_>
          <internalNodes>
            0 -1 288 -3.5847618710249662e-04</internalNodes>
          <leafValues>
            -3.4102624654769897e-01 1.3874304294586182e-01</leafValues></_>
        <_>
          <internalNodes>
            0 -1 710 2.0364210940897465e-03</internalNodes>
          <leafValues>
            -8.9873909950256348e-02 5.5509394407272339e-01</leafValues></_>
        <_>
          <internalNodes>
            0 -1 580 -8.9879799634218216e-03</internalNodes>
          <leafValues>
            -3.9918783307075500e-01 1.4307831227779388e-01</leafValues></_>
        <_>
          <internalNodes>
            0 -1 738 6.8440306931734085e-03</internalNodes>
          <leafValues>
            6.7525893449783325e-02 -5.6455403566360474e-01</leafValues></_>
        <_>
          <internalNodes>
            0 -1 763 1.5733046457171440e-03</internalNodes>
          <leafValues>
            -1.2588746845722198e-01 4.0181410312652588e-01</leafValues></_>
        <_>
          <internalNodes>
            0 -1 22 5.8889109641313553e-04</internalNodes>
          <leafValues>
            1.1251010745763779e-01 -4.6482214331626892e-01</leafValues></_>
        <_>
          <internalNodes>
            0 -1 452 1.8920913134934381e-05</internalNodes>
          <leafValues>
            -1.7978481948375702e-01 2.9692149162292480e-01</leafValues></_>
        <_>
          <internalNodes>
            0 -1 494 2.4289559223689139e-04</internalNodes>
          <leafValues>
            1.6138738393783569e-01 -3.2063502073287964e-01</leafValues></_></weakClassifiers></_>
    <!-- stage 10 -->
    <_>
      <maxWeakCount>73</maxWeakCount>
      <stageThreshold>-1.5957518815994263e+00</stageThreshold>
      <weakClassifiers>
        <_>
          <internalNodes>
            0 -1 3 -7.7552320435643196e-03</internalNodes>
          <leafValues>
            1.5843270719051361e-01 -8.7730062007904053e-01</leafValues></_>
        <_>
          <internalNodes>
            0 -1 156 1.8709367141127586e-03</internalNodes>
          <leafValues>
            -1.9800598919391632e-01 3.3157983422279358e-01</leafValues></_>
        <_>
          <internalNodes>
            0 -1 724 7.2141843847930431e-03</internalNodes>
          <leafValues>
            7.5605377554893494e-02 -7.5633966922760010e-01</leafValues></_>
        <_>
          <internalNodes>
            0 -1 712 1.0822068434208632e-03</internalNodes>
          <leafValues>
            6.4858563244342804e-02 -6.8702518939971924e-01</leafValues></_>
        <_>
          <internalNodes>
            0 -1 178 -6.3042156398296356e-04</internalNodes>
          <leafValues>
            7.5824528932571411e-02 -6.3673990964889526e-01</leafValues></_>
        <_>
          <internalNodes>
            0 -1 284 -1.3290791213512421e-01</internalNodes>
          <leafValues>
            -8.7089963257312775e-02 7.7182722091674805e-01</leafValues></_>
        <_>
          <internalNodes>
            0 -1 114 -6.0272552073001862e-02</internalNodes>
          <leafValues>
            2.4470764398574829e-01 -3.4919604659080505e-01</leafValues></_>
        <_>
          <internalNodes>
            0 -1 729 -5.9797824360430241e-04</internalNodes>
          <leafValues>
            3.5489854216575623e-01 -1.4881235361099243e-01</leafValues></_>
        <_>
          <internalNodes>
            0 -1 546 -1.7819614149630070e-03</internalNodes>
          <leafValues>
            -4.2074367403984070e-01 1.3217410445213318e-01</leafValues></_>
        <_>
          <internalNodes>
            0 -1 828 1.1143751908093691e-04</internalNodes>
          <leafValues>
            -1.9144864380359650e-01 2.8382068872451782e-01</leafValues></_>
        <_>
          <internalNodes>
            0 -1 753 5.2066100761294365e-04</internalNodes>
          <leafValues>
            9.4292879104614258e-02 -5.4950660467147827e-01</leafValues></_>
        <_>
          <internalNodes>
            0 -1 331 5.4483240091940388e-05</internalNodes>
          <leafValues>
            -1.6066671907901764e-01 3.2118904590606689e-01</leafValues></_>
        <_>
          <internalNodes>
            0 -1 230 9.0669398196041584e-04</internalNodes>
          <leafValues>
            7.2159595787525177e-02 -6.0417681932449341e-01</leafValues></_>
        <_>
          <internalNodes>
            0 -1 851 -7.7331340871751308e-03</internalNodes>
          <leafValues>
            9.5463478565216064e-01 -5.5662337690591812e-02</leafValues></_>
        <_>
          <internalNodes>
            0 -1 731 3.4448015503585339e-04</internalNodes>
          <leafValues>
            9.5847934484481812e-02 -4.9998277425765991e-01</leafValues></_>
        <_>
          <internalNodes>
            0 -1 828 -2.9472110327333212e-04</internalNodes>
          <leafValues>
            4.0262475609779358e-01 -1.3620312511920929e-01</leafValues></_>
        <_>
          <internalNodes>
            0 -1 860 -1.0906621813774109e-02</internalNodes>
          <leafValues>
            4.9587330222129822e-01 -1.0141595453023911e-01</leafValues></_>
        <_>
          <internalNodes>
            0 -1 884 9.0168742462992668e-04</internalNodes>
          <leafValues>
            9.0659148991107941e-02 -6.6948670148849487e-01</leafValues></_>
        <_>
          <internalNodes>
            0 -1 601 -1.5604513464495540e-04</internalNodes>
          <leafValues>
            2.9301193356513977e-01 -1.7506879568099976e-01</leafValues></_>
        <_>
          <internalNodes>
            0 -1 110 9.5689203590154648e-05</internalNodes>
          <leafValues>
            1.9244939088821411e-01 -2.6959639787673950e-01</leafValues></_>
        <_>
          <internalNodes>
            0 -1 841 7.2139967232942581e-03</internalNodes>
          <leafValues>
            -8.4717474877834320e-02 7.4433898925781250e-01</leafValues></_>
        <_>
          <internalNodes>
            0 -1 848 -5.5614737793803215e-03</internalNodes>
          <leafValues>
            -5.4985892772674561e-01 1.0875080525875092e-01</leafValues></_>
        <_>
          <internalNodes>
            0 -1 347 8.5998128633946180e-04</internalNodes>
          <leafValues>
            -1.8206824362277985e-01 2.9363790154457092e-01</leafValues></_>
        <_>
          <internalNodes>
            0 -1 490 -1.8415234517306089e-03</internalNodes>
          <leafValues>
            -4.4200628995895386e-01 1.2536349892616272e-01</leafValues></_>
        <_>
          <internalNodes>
            0 -1 29 -1.1921977624297142e-02</internalNodes>
          <leafValues>
            4.4258961081504822e-01 -1.2456063926219940e-01</leafValues></_>
        <_>
          <internalNodes>
            0 -1 485 1.1880745296366513e-04</internalNodes>
          <leafValues>
            1.2474965304136276e-01 -4.3331804871559143e-01</leafValues></_>
        <_>
          <internalNodes>
            0 -1 395 1.4824600657448173e-04</internalNodes>
          <leafValues>
            -1.8876315653324127e-01 3.3824753761291504e-01</leafValues></_>
        <_>
          <internalNodes>
            0 -1 7 2.7317003696225584e-04</internalNodes>
          <leafValues>
            1.1305361986160278e-01 -4.1685482859611511e-01</leafValues></_>
        <_>
          <internalNodes>
            0 -1 34 -1.3340774923563004e-02</internalNodes>
          <leafValues>
            8.0733871459960938e-01 -5.7632323354482651e-02</leafValues></_>
        <_>
          <internalNodes>
            0 -1 758 -5.9479223564267159e-03</internalNodes>
          <leafValues>
            9.3711411952972412e-01 -3.5503648221492767e-02</leafValues></_>
        <_>
          <internalNodes>
            0 -1 827 1.3028235407546163e-03</internalNodes>
          <leafValues>
            1.3515892624855042e-01 -3.5636869072914124e-01</leafValues></_>
        <_>
          <internalNodes>
            0 -1 836 -1.1408056598156691e-03</internalNodes>
          <leafValues>
            5.5358195304870605e-01 -9.9247239530086517e-02</leafValues></_>
        <_>
          <internalNodes>
            0 -1 241 4.6831709332764149e-03</internalNodes>
          <leafValues>
            1.0368167608976364e-01 -4.7759187221527100e-01</leafValues></_>
        <_>
          <internalNodes>
            0 -1 434 -8.3162228111177683e-04</internalNodes>
          <leafValues>
            3.6671355366706848e-01 -1.6033023595809937e-01</leafValues></_>
        <_>
          <internalNodes>
            0 -1 806 -1.4958474785089493e-03</internalNodes>
          <leafValues>
            -3.7531366944313049e-01 1.1175978928804398e-01</leafValues></_>
        <_>
          <internalNodes>
            0 -1 88 -1.3839346356689930e-03</internalNodes>
          <leafValues>
            6.8405830860137939e-01 -8.0785274505615234e-02</leafValues></_>
        <_>
          <internalNodes>
            0 -1 422 6.1170039698481560e-03</internalNodes>
          <leafValues>
            1.3652242720127106e-01 -3.5658958554267883e-01</leafValues></_>
        <_>
          <internalNodes>
            0 -1 618 2.0240267622284591e-04</internalNodes>
          <leafValues>
            -1.5754677355289459e-01 3.1921869516372681e-01</leafValues></_>
        <_>
          <internalNodes>
            0 -1 47 -1.3845576904714108e-04</internalNodes>
          <leafValues>
            -3.5985547304153442e-01 1.2066911160945892e-01</leafValues></_>
        <_>
          <internalNodes>
            0 -1 541 9.5180934295058250e-04</internalNodes>
          <leafValues>
            -1.1094421893358231e-01 3.7257704138755798e-01</leafValues></_>
        <_>
          <internalNodes>
            0 -1 107 -3.9446150185540318e-04</internalNodes>
          <leafValues>
            -3.2278645038604736e-01 1.4837870001792908e-01</leafValues></_>
        <_>
          <internalNodes>
            0 -1 254 -3.4197352943010628e-04</internalNodes>
          <leafValues>
            4.3076980113983154e-01 -1.0646181553602219e-01</leafValues></_>
        <_>
          <internalNodes>
            0 -1 583 9.7311533987522125e-02</internalNodes>
          <leafValues>
            -5.9184420853853226e-02 6.8221944570541382e-01</leafValues></_>
        <_>
          <internalNodes>
            0 -1 740 -9.0381596237421036e-03</internalNodes>
          <leafValues>
            -8.1336575746536255e-01 6.7459113895893097e-02</leafValues></_>
        <_>
          <internalNodes>
            0 -1 554 2.7593472972512245e-02</internalNodes>
          <leafValues>
            -6.4575769007205963e-02 7.5187963247299194e-01</leafValues></_>
        <_>
          <internalNodes>
            0 -1 790 2.6430534198880196e-03</internalNodes>
          <leafValues>
            1.1804673820734024e-01 -3.8566154241561890e-01</leafValues></_>
        <_>
          <internalNodes>
            0 -1 799 -9.7345601534470916e-04</internalNodes>
          <leafValues>
            6.8281072378158569e-01 -6.1118997633457184e-02</leafValues></_>
        <_>
          <internalNodes>
            0 -1 292 8.5280858911573887e-04</internalNodes>
          <leafValues>
            8.6158134043216705e-02 -4.8798453807830811e-01</leafValues></_>
        <_>
          <internalNodes>
            0 -1 124 2.0253664115443826e-04</internalNodes>
          <leafValues>
            -1.5821613371372223e-01 3.3127269148826599e-01</leafValues></_>
        <_>
          <internalNodes>
            0 -1 847 6.6514324862509966e-04</internalNodes>
          <leafValues>
            1.1973164975643158e-01 -3.7662374973297119e-01</leafValues></_>
        <_>
          <internalNodes>
            0 -1 41 5.0876103341579437e-02</internalNodes>
          <leafValues>
            7.0121139287948608e-02 -7.4320232868194580e-01</leafValues></_>
        <_>
          <internalNodes>
            0 -1 420 1.3622749247588217e-04</internalNodes>
          <leafValues>
            -1.3338449597358704e-01 3.4763208031654358e-01</leafValues></_>
        <_>
          <internalNodes>
            0 -1 145 1.9167435821145773e-03</internalNodes>
          <leafValues>
            7.6611526310443878e-02 -5.8145582675933838e-01</leafValues></_>
        <_>
          <internalNodes>
            0 -1 589 1.0161908576264977e-03</internalNodes>
          <leafValues>
            -1.3390864431858063e-01 3.0264246463775635e-01</leafValues></_>
        <_>
          <internalNodes>
            0 -1 858 3.4795599058270454e-03</internalNodes>
          <leafValues>
            1.0394582152366638e-01 -4.3090075254440308e-01</leafValues></_>
        <_>
          <internalNodes>
            0 -1 449 2.3470883024856448e-04</internalNodes>
          <leafValues>
            -1.2551809847354889e-01 3.1445756554603577e-01</leafValues></_>
        <_>
          <internalNodes>
            0 -1 32 8.8476590462960303e-05</internalNodes>
          <leafValues>
            1.3390056788921356e-01 -3.3842602372169495e-01</leafValues></_>
        <_>
          <internalNodes>
            0 -1 866 -3.1405221670866013e-04</internalNodes>
          <leafValues>
            3.5064926743507385e-01 -1.0597392916679382e-01</leafValues></_>
        <_>
          <internalNodes>
            0 -1 689 2.9851794242858887e-03</internalNodes>
          <leafValues>
            9.6227996051311493e-02 -4.8747903108596802e-01</leafValues></_>
        <_>
          <internalNodes>
            0 -1 727 -2.2905744612216949e-02</internalNodes>
          <leafValues>
            7.2417432069778442e-01 -5.4777275770902634e-02</leafValues></_>
        <_>
          <internalNodes>
            0 -1 363 2.0962590351700783e-03</internalNodes>
          <leafValues>
            -3.1230162829160690e-02 7.6950848102569580e-01</leafValues></_>
        <_>
          <internalNodes>
            0 -1 532 1.6067910194396973e-01</internalNodes>
          <leafValues>
            4.3037202209234238e-02 -8.3263146877288818e-01</leafValues></_>
        <_>
          <internalNodes>
            0 -1 875 8.4688570350408554e-03</internalNodes>
          <leafValues>
            -4.1447635740041733e-02 9.1911977529525757e-01</leafValues></_>
        <_>
          <internalNodes>
            0 -1 375 1.4895448088645935e-01</internalNodes>
          <leafValues>
            4.5897513628005981e-02 -8.6377298831939697e-01</leafValues></_>
        <_>
          <internalNodes>
            0 -1 761 -1.6578441136516631e-04</internalNodes>
          <leafValues>
            -3.7543302774429321e-01 8.2357130944728851e-02</leafValues></_>
        <_>
          <internalNodes>
            0 -1 237 -2.2406774223782122e-04</internalNodes>
          <leafValues>
            3.8038012385368347e-01 -1.1666069179773331e-01</leafValues></_>
        <_>
          <internalNodes>
            0 -1 741 6.7298539215698838e-04</internalNodes>
          <leafValues>
            5.1096148788928986e-02 -6.8283200263977051e-01</leafValues></_>
        <_>
          <internalNodes>
            0 -1 258 -2.1209847182035446e-03</internalNodes>
          <leafValues>
            2.7281257510185242e-01 -1.2817472219467163e-01</leafValues></_>
        <_>
          <internalNodes>
            0 -1 700 2.3770175175741315e-05</internalNodes>
          <leafValues>
            1.1812847852706909e-01 -3.4349378943443298e-01</leafValues></_>
        <_>
          <internalNodes>
            0 -1 697 -1.1155011132359505e-02</internalNodes>
          <leafValues>
            7.7923750877380371e-01 -4.3220218271017075e-02</leafValues></_>
        <_>
          <internalNodes>
            0 -1 705 -7.2470656596124172e-04</internalNodes>
          <leafValues>
            -7.0778465270996094e-01 5.6903190910816193e-02</leafValues></_>
        <_>
          <internalNodes>
            0 -1 393 1.4604642638005316e-04</internalNodes>
          <leafValues>
            -1.0511975735425949e-01 3.5583516955375671e-01</leafValues></_>
        <_>
          <internalNodes>
            0 -1 682 -5.0169765017926693e-04</internalNodes>
          <leafValues>
            -4.2412364482879639e-01 9.8255790770053864e-02</leafValues></_></weakClassifiers></_>
    <!-- stage 11 -->
    <_>
      <maxWeakCount>80</maxWeakCount>
      <stageThreshold>-1.7375825643539429e+00</stageThreshold>
      <weakClassifiers>
        <_>
          <internalNodes>
            0 -1 305 -7.9721324145793915e-03</internalNodes>
          <leafValues>
            2.2557726502418518e-01 -9.4652408361434937e-01</leafValues></_>
        <_>
          <internalNodes>
            0 -1 718 -1.6854578629136086e-02</internalNodes>
          <leafValues>
            4.3342515826225281e-01 -2.9083490371704102e-01</leafValues></_>
        <_>
          <internalNodes>
            0 -1 421 -5.0004210788756609e-04</internalNodes>
          <leafValues>
            4.4144856929779053e-01 -1.6213512420654297e-01</leafValues></_>
        <_>
          <internalNodes>
            0 -1 551 -1.0476118768565357e-04</internalNodes>
          <leafValues>
            3.0687126517295837e-01 -1.7893686890602112e-01</leafValues></_>
        <_>
          <internalNodes>
            0 -1 100 1.7195419786730781e-05</internalNodes>
          <leafValues>
            1.6886103153228760e-01 -3.4581577777862549e-01</leafValues></_>
        <_>
          <internalNodes>
            0 -1 377 -6.8474537692964077e-04</internalNodes>
          <leafValues>
            4.1245347261428833e-01 -1.5006993710994720e-01</leafValues></_>
        <_>
          <internalNodes>
            0 -1 257 3.9369799196720123e-02</internalNodes>
          <leafValues>
            -6.4703613519668579e-02 7.4529767036437988e-01</leafValues></_>
        <_>
          <internalNodes>
            0 -1 195 -8.2673097494989634e-05</internalNodes>
          <leafValues>
            -3.3084106445312500e-01 1.6456340253353119e-01</leafValues></_>
        <_>
          <internalNodes>
            0 -1 158 -8.8371662423014641e-04</internalNodes>
          <leafValues>
            2.9051411151885986e-01 -1.9660690426826477e-01</leafValues></_>
        <_>
          <internalNodes>
            0 -1 459 3.7103824317455292e-02</internalNodes>
          <leafValues>
            1.0511768609285355e-01 -6.1498534679412842e-01</leafValues></_>
        <_>
          <internalNodes>
            0 -1 671 -5.4479036480188370e-03</internalNodes>
          <leafValues>
            3.9354974031448364e-01 -1.4246122539043427e-01</leafValues></_>
        <_>
          <internalNodes>
            0 -1 731 3.8624921580776572e-04</internalNodes>
          <leafValues>
            7.7495224773883820e-02 -6.1137986183166504e-01</leafValues></_>
        <_>
          <internalNodes>
            0 -1 149 -3.4334843803662807e-05</internalNodes>
          <leafValues>
            3.4558111429214478e-01 -1.4252182841300964e-01</leafValues></_>
        <_>
          <internalNodes>
            0 -1 85 -5.5706431157886982e-04</internalNodes>
          <leafValues>
            -7.4313324689865112e-01 6.8656511604785919e-02</leafValues></_>
        <_>
          <internalNodes>
            0 -1 265 -3.0773793696425855e-04</internalNodes>
          <leafValues>
            3.3443507552146912e-01 -1.4814491569995880e-01</leafValues></_>
        <_>
          <internalNodes>
            0 -1 391 -9.7645250207278877e-05</internalNodes>
          <leafValues>
            -3.7536552548408508e-01 1.3496166467666626e-01</leafValues></_>
        <_>
          <internalNodes>
            0 -1 413 2.8877839213237166e-04</internalNodes>
          <leafValues>
            -1.3764870166778564e-01 4.0224549174308777e-01</leafValues></_>
        <_>
          <internalNodes>
            0 -1 460 3.8779777241870761e-04</internalNodes>
          <leafValues>
            1.4904241263866425e-01 -3.8737776875495911e-01</leafValues></_>
        <_>
          <internalNodes>
            0 -1 520 -3.5959010710939765e-04</internalNodes>
          <leafValues>
            -3.4267765283584595e-01 1.6246913373470306e-01</leafValues></_>
        <_>
          <internalNodes>
            0 -1 352 -2.6170286582782865e-04</internalNodes>
          <leafValues>
            3.7463566660881042e-01 -2.0294603705406189e-01</leafValues></_>
        <_>
          <internalNodes>
            0 -1 647 -9.8133884370326996e-02</internalNodes>
          <leafValues>
            -6.1754679679870605e-01 9.9068678915500641e-02</leafValues></_>
        <_>
          <internalNodes>
            0 -1 130 4.3752295896410942e-03</internalNodes>
          <leafValues>
            -1.7440174520015717e-01 3.2458978891372681e-01</leafValues></_>
        <_>
          <internalNodes>
            0 -1 840 2.2156883496791124e-03</internalNodes>
          <leafValues>
            1.4845053851604462e-01 -3.4280174970626831e-01</leafValues></_>
        <_>
          <internalNodes>
            0 -1 512 -3.3002882264554501e-03</internalNodes>
          <leafValues>
            3.6731889843940735e-01 -1.5872067213058472e-01</leafValues></_>
        <_>
          <internalNodes>
            0 -1 666 3.3563729375600815e-03</internalNodes>
          <leafValues>
            9.2455565929412842e-02 -6.2670183181762695e-01</leafValues></_>
        <_>
          <internalNodes>
            0 -1 129 -6.8106886465102434e-04</internalNodes>
          <leafValues>
            4.0215054154396057e-01 -1.2948702275753021e-01</leafValues></_>
        <_>
          <internalNodes>
            0 -1 251 -1.6952310397755355e-04</internalNodes>
          <leafValues>
            -3.6967048048973083e-01 1.4454381167888641e-01</leafValues></_>
        <_>
          <internalNodes>
            0 -1 50 -4.8153489478863776e-04</internalNodes>
          <leafValues>
            5.7718509435653687e-01 -9.5458090305328369e-02</leafValues></_>
        <_>
          <internalNodes>
            0 -1 21 4.0091568371281028e-04</internalNodes>
          <leafValues>
            1.7307537794113159e-01 -3.4834137558937073e-01</leafValues></_>
        <_>
          <internalNodes>
            0 -1 50 1.3185301213525236e-04</internalNodes>
          <leafValues>
            -1.4521032571792603e-01 3.6479887366294861e-01</leafValues></_>
        <_>
          <internalNodes>
            0 -1 98 1.8064674222841859e-03</internalNodes>
          <leafValues>
            1.1325664818286896e-01 -4.4462376832962036e-01</leafValues></_>
        <_>
          <internalNodes>
            0 -1 822 -6.0646270867437124e-04</internalNodes>
          <leafValues>
            3.5275241732597351e-01 -1.4156450331211090e-01</leafValues></_>
        <_>
          <internalNodes>
            0 -1 869 -1.6124213114380836e-02</internalNodes>
          <leafValues>
            5.5579888820648193e-01 -7.8856453299522400e-02</leafValues></_>
        <_>
          <internalNodes>
            0 -1 79 1.3871289411326870e-05</internalNodes>
          <leafValues>
            1.5047803521156311e-01 -3.2550367712974548e-01</leafValues></_>
        <_>
          <internalNodes>
            0 -1 66 -9.3356287106871605e-04</internalNodes>
          <leafValues>
            5.0504827499389648e-01 -9.5003724098205566e-02</leafValues></_>
        <_>
          <internalNodes>
            0 -1 856 -3.6680253106169403e-04</internalNodes>
          <leafValues>
            -5.2503091096878052e-01 9.2361763119697571e-02</leafValues></_>
        <_>
          <internalNodes>
            0 -1 368 -1.8190745322499424e-04</internalNodes>
          <leafValues>
            3.2847458124160767e-01 -1.4944382011890411e-01</leafValues></_>
        <_>
          <internalNodes>
            0 -1 65 -7.0817812229506671e-05</internalNodes>
          <leafValues>
            -3.9747053384780884e-01 1.2385594099760056e-01</leafValues></_>
        <_>
          <internalNodes>
            0 -1 313 4.5220269821584225e-03</internalNodes>
          <leafValues>
            7.6534777879714966e-02 -6.5610569715499878e-01</leafValues></_>
        <_>
          <internalNodes>
            0 -1 293 -7.7949231490492821e-04</internalNodes>
          <leafValues>
            4.1708520054817200e-01 -1.3319197297096252e-01</leafValues></_>
        <_>
          <internalNodes>
            0 -1 475 7.0938578573986888e-04</internalNodes>
          <leafValues>
            1.0227697342634201e-01 -4.4218087196350098e-01</leafValues></_>
        <_>
          <internalNodes>
            0 -1 796 1.4442013343796134e-04</internalNodes>
          <leafValues>
            -1.2941089272499084e-01 3.6470451951026917e-01</leafValues></_>
        <_>
          <internalNodes>
            0 -1 125 1.1366316117346287e-02</internalNodes>
          <leafValues>
            1.4796578884124756e-01 -2.7626198530197144e-01</leafValues></_>
        <_>
          <internalNodes>
            0 -1 4 -6.3023976981639862e-03</internalNodes>
          <leafValues>
            7.4887883663177490e-01 -6.1664301902055740e-02</leafValues></_>
        <_>
          <internalNodes>
            0 -1 309 -1.9458887982182205e-04</internalNodes>
          <leafValues>
            -5.6609892845153809e-01 8.4494814276695251e-02</leafValues></_>
        <_>
          <internalNodes>
            0 -1 560 -2.8395776171237230e-03</internalNodes>
          <leafValues>
            4.5432290434837341e-01 -1.1258765310049057e-01</leafValues></_>
        <_>
          <internalNodes>
            0 -1 46 -5.9068603150080889e-05</internalNodes>
          <leafValues>
            -4.3425089120864868e-01 9.7355276346206665e-02</leafValues></_>
        <_>
          <internalNodes>
            0 -1 332 -1.0206679871771485e-04</internalNodes>
          <leafValues>
            3.9073893427848816e-01 -1.2337455898523331e-01</leafValues></_>
        <_>
          <internalNodes>
            0 -1 793 -1.9200300797820091e-02</internalNodes>
          <leafValues>
            5.0208860635757446e-01 -7.8397229313850403e-02</leafValues></_>
        <_>
          <internalNodes>
            0 -1 502 -4.2591597884893417e-03</internalNodes>
          <leafValues>
            -8.2679426670074463e-01 5.3488392382860184e-02</leafValues></_>
        <_>
          <internalNodes>
            0 -1 401 9.9104840774089098e-04</internalNodes>
          <leafValues>
            -6.7724548280239105e-02 5.7858157157897949e-01</leafValues></_>
        <_>
          <internalNodes>
            0 -1 255 -2.6831839932128787e-04</internalNodes>
          <leafValues>
            -4.4987648725509644e-01 1.0465119034051895e-01</leafValues></_>
        <_>
          <internalNodes>
            0 -1 0 -2.8495190143585205e+00</internalNodes>
          <leafValues>
            -8.9403992891311646e-01 3.7208374589681625e-02</leafValues></_>
        <_>
          <internalNodes>
            0 -1 296 -1.6151573508977890e-02</internalNodes>
          <leafValues>
            6.7123752832412720e-01 -6.0962196439504623e-02</leafValues></_>
        <_>
          <internalNodes>
            0 -1 629 -1.5873888507485390e-02</internalNodes>
          <leafValues>
            -7.0380246639251709e-01 6.1957322061061859e-02</leafValues></_>
        <_>
          <internalNodes>
            0 -1 74 3.1358348205685616e-03</internalNodes>
          <leafValues>
            8.8755741715431213e-02 -3.6750680208206177e-01</leafValues></_>
        <_>
          <internalNodes>
            0 -1 424 -1.2966296344529837e-04</internalNodes>
          <leafValues>
            4.7901448607444763e-01 -9.5171980559825897e-02</leafValues></_>
        <_>
          <internalNodes>
            0 -1 569 -2.6325709768570960e-05</internalNodes>
          <leafValues>
            -3.5039037466049194e-01 1.1308592557907104e-01</leafValues></_>
        <_>
          <internalNodes>
            0 -1 537 5.5630586575716734e-04</internalNodes>
          <leafValues>
            -8.1798471510410309e-02 6.2322151660919189e-01</leafValues></_>
        <_>
          <internalNodes>
            0 -1 266 2.6733251288533211e-02</internalNodes>
          <leafValues>
            4.6992857009172440e-02 -7.4774318933486938e-01</leafValues></_>
        <_>
          <internalNodes>
            0 -1 40 6.5875705331563950e-04</internalNodes>
          <leafValues>
            -7.5332246720790863e-02 5.1013851165771484e-01</leafValues></_>
        <_>
          <internalNodes>
            0 -1 93 7.3911098297685385e-04</internalNodes>
          <leafValues>
            8.7802290916442871e-02 -4.5701590180397034e-01</leafValues></_>
        <_>
          <internalNodes>
            0 -1 628 -2.2541116923093796e-03</internalNodes>
          <leafValues>
            4.8093339800834656e-01 -7.1783363819122314e-02</leafValues></_>
        <_>
          <internalNodes>
            0 -1 443 5.9697590768337250e-03</internalNodes>
          <leafValues>
            5.7206094264984131e-02 -5.5009901523590088e-01</leafValues></_>
        <_>
          <internalNodes>
            0 -1 402 2.6165961753576994e-04</internalNodes>
          <leafValues>
            -9.9033370614051819e-02 3.7815618515014648e-01</leafValues></_>
        <_>
          <internalNodes>
            0 -1 218 4.0541455149650574e-02</internalNodes>
          <leafValues>
            5.1218155771493912e-02 -6.4160645008087158e-01</leafValues></_>
        <_>
          <internalNodes>
            0 -1 625 -1.6553571447730064e-02</internalNodes>
          <leafValues>
            7.0760095119476318e-01 -4.7318134456872940e-02</leafValues></_>
        <_>
          <internalNodes>
            0 -1 832 -2.4375603534281254e-03</internalNodes>
          <leafValues>
            -9.4643658399581909e-01 4.3083459138870239e-02</leafValues></_>
        <_>
          <internalNodes>
            0 -1 503 -4.1223235428333282e-02</internalNodes>
          <leafValues>
            1. -3.5185027867555618e-02</leafValues></_>
        <_>
          <internalNodes>
            0 -1 688 5.9377783909440041e-03</internalNodes>
          <leafValues>
            4.6331360936164856e-02 -7.6997196674346924e-01</leafValues></_>
        <_>
          <internalNodes>
            0 -1 302 5.4000143427401781e-04</internalNodes>
          <leafValues>
            -8.1828862428665161e-02 4.0875539183616638e-01</leafValues></_>
        <_>
          <internalNodes>
            0 -1 883 -1.3024276122450829e-02</internalNodes>
          <leafValues>
            -4.0404319763183594e-01 9.3358546495437622e-02</leafValues></_>
        <_>
          <internalNodes>
            0 -1 683 -8.1670039799064398e-04</internalNodes>
          <leafValues>
            4.5443534851074219e-01 -7.7564746141433716e-02</leafValues></_>
        <_>
          <internalNodes>
            0 -1 460 4.1481369407847524e-04</internalNodes>
          <leafValues>
            8.3222821354866028e-02 -4.6587806940078735e-01</leafValues></_>
        <_>
          <internalNodes>
            0 -1 44 1.4208056963980198e-03</internalNodes>
          <leafValues>
            -8.7246000766754150e-02 3.5038512945175171e-01</leafValues></_>
        <_>
          <internalNodes>
            0 -1 561 -1.2977252481505275e-04</internalNodes>
          <leafValues>
            -4.3379172682762146e-01 7.8221917152404785e-02</leafValues></_>
        <_>
          <internalNodes>
            0 -1 60 1.4684548659715801e-04</internalNodes>
          <leafValues>
            -5.7361219078302383e-02 5.2142047882080078e-01</leafValues></_>
        <_>
          <internalNodes>
            0 -1 558 5.0105573609471321e-04</internalNodes>
          <leafValues>
            4.8765569925308228e-02 -6.7055684328079224e-01</leafValues></_>
        <_>
          <internalNodes>
            0 -1 396 -1.3816462829709053e-02</internalNodes>
          <leafValues>
            7.9886263608932495e-01 -3.9747893810272217e-02</leafValues></_>
        <_>
          <internalNodes>
            0 -1 566 1.9104138016700745e-01</internalNodes>
          <leafValues>
            3.8091547787189484e-02 -8.1363677978515625e-01</leafValues></_></weakClassifiers></_>
    <!-- stage 12 -->
    <_>
      <maxWeakCount>28</maxWeakCount>
      <stageThreshold>-7.7860653400421143e-01</stageThreshold>
      <weakClassifiers>
        <_>
          <internalNodes>
            0 -1 25 2.6581983547657728e-04</internalNodes>
          <leafValues>
            1.2554112076759338e-01 -3.7500000000000000e-01</leafValues></_>
        <_>
          <internalNodes>
            0 -1 91 -1.2546763755381107e-03</internalNodes>
          <leafValues>
            6.1655998229980469e-02 -8.3958297967910767e-01</leafValues></_>
        <_>
          <internalNodes>
            0 -1 134 3.3450865885242820e-04</internalNodes>
          <leafValues>
            1.9337269663810730e-01 -2.8069210052490234e-01</leafValues></_>
        <_>
          <internalNodes>
            0 -1 772 1.1046443978557363e-04</internalNodes>
          <leafValues>
            -1.7986375093460083e-01 2.7332797646522522e-01</leafValues></_>
        <_>
          <internalNodes>
            0 -1 134 -1.7973262583836913e-04</internalNodes>
          <leafValues>
            -2.8745156526565552e-01 2.3378263413906097e-01</leafValues></_>
        <_>
          <internalNodes>
            0 -1 436 1.8825992010533810e-03</internalNodes>
          <leafValues>
            -1.8356490135192871e-01 5.8778691291809082e-01</leafValues></_>
        <_>
          <internalNodes>
            0 -1 783 -2.2222509142011404e-04</internalNodes>
          <leafValues>
            4.1604977846145630e-01 -6.7521706223487854e-02</leafValues></_>
        <_>
          <internalNodes>
            0 -1 659 7.1622472023591399e-04</internalNodes>
          <leafValues>
            -1.8004621565341949e-01 3.1190663576126099e-01</leafValues></_>
        <_>
          <internalNodes>
            0 -1 716 5.7143741287291050e-04</internalNodes>
          <leafValues>
            1.5073679387569427e-01 -4.3685209751129150e-01</leafValues></_>
        <_>
          <internalNodes>
            0 -1 58 -1.0660552978515625e-01</internalNodes>
          <leafValues>
            -3.2207453250885010e-01 1.3801112771034241e-01</leafValues></_>
        <_>
          <internalNodes>
            0 -1 739 -5.4446241119876504e-04</internalNodes>
          <leafValues>
            -3.7111252546310425e-01 1.3649292290210724e-01</leafValues></_>
        <_>
          <internalNodes>
            0 -1 826 5.7012285105884075e-03</internalNodes>
          <leafValues>
            -8.6292445659637451e-02 4.5267322659492493e-01</leafValues></_>
        <_>
          <internalNodes>
            0 -1 64 2.7927625342272222e-04</internalNodes>
          <leafValues>
            1.5633280575275421e-01 -2.6928174495697021e-01</leafValues></_>
        <_>
          <internalNodes>
            0 -1 187 -3.4069901448674500e-04</internalNodes>
          <leafValues>
            2.5766509771347046e-01 -1.8492263555526733e-01</leafValues></_>
        <_>
          <internalNodes>
            0 -1 228 6.1692117014899850e-04</internalNodes>
          <leafValues>
            -1.6118501126766205e-01 2.9213845729827881e-01</leafValues></_>
        <_>
          <internalNodes>
            0 -1 269 -3.7905782461166382e-02</internalNodes>
          <leafValues>
            5.4702180624008179e-01 -7.5208336114883423e-02</leafValues></_>
        <_>
          <internalNodes>
            0 -1 466 4.0359452366828918e-02</internalNodes>
          <leafValues>
            7.7903583645820618e-02 -6.7706680297851563e-01</leafValues></_>
        <_>
          <internalNodes>
            0 -1 451 5.8586359955370426e-04</internalNodes>
          <leafValues>
            -1.1070457100868225e-01 4.3239000439643860e-01</leafValues></_>
        <_>
          <internalNodes>
            0 -1 444 4.1640110430307686e-04</internalNodes>
          <leafValues>
            1.3709552586078644e-01 -3.8353830575942993e-01</leafValues></_>
        <_>
          <internalNodes>
            0 -1 661 1.5954008558765054e-03</internalNodes>
          <leafValues>
            1.4543998241424561e-01 -2.9594585299491882e-01</leafValues></_>
        <_>
          <internalNodes>
            0 -1 694 1.9485350698232651e-02</internalNodes>
          <leafValues>
            -7.5767934322357178e-02 7.2696489095687866e-01</leafValues></_>
        <_>
          <internalNodes>
            0 -1 285 3.6591419484466314e-04</internalNodes>
          <leafValues>
            -1.0924057662487030e-01 3.8011997938156128e-01</leafValues></_>
        <_>
          <internalNodes>
            0 -1 152 -1.9844097550958395e-03</internalNodes>
          <leafValues>
            2.5721982121467590e-01 -1.6319243609905243e-01</leafValues></_>
        <_>
          <internalNodes>
            0 -1 81 -3.5630520869744942e-05</internalNodes>
          <leafValues>
            -2.7173355221748352e-01 1.6267240047454834e-01</leafValues></_>
        <_>
          <internalNodes>
            0 -1 92 -1.8920913134934381e-05</internalNodes>
          <leafValues>
            2.6955962181091309e-01 -1.7409485578536987e-01</leafValues></_>
        <_>
          <internalNodes>
            0 -1 437 -1.2833647197112441e-03</internalNodes>
          <leafValues>
            -3.4723332524299622e-01 1.4309030771255493e-01</leafValues></_>
        <_>
          <internalNodes>
            0 -1 264 -1.2025082483887672e-02</internalNodes>
          <leafValues>
            6.8788224458694458e-01 -7.7666141092777252e-02</leafValues></_>
        <_>
          <internalNodes>
            0 -1 622 1.4459351077675819e-03</internalNodes>
          <leafValues>
            1.5789492428302765e-01 -2.5850030779838562e-01</leafValues></_></weakClassifiers></_>
    <!-- stage 13 -->
    <_>
      <maxWeakCount>50</maxWeakCount>
      <stageThreshold>-1.2409859895706177e+00</stageThreshold>
      <weakClassifiers>
        <_>
          <internalNodes>
            0 -1 516 -4.9686353653669357e-02</internalNodes>
          <leafValues>
            1.4391143620014191e-01 -6.1538463830947876e-01</leafValues></_>
        <_>
          <internalNodes>
            0 -1 128 1.7912241164594889e-03</internalNodes>
          <leafValues>
            5.2417084574699402e-02 -7.6079499721527100e-01</leafValues></_>
        <_>
          <internalNodes>
            0 -1 487 2.4735392071306705e-04</internalNodes>
          <leafValues>
            -1.3019990921020508e-01 4.8111346364021301e-01</leafValues></_>
        <_>
          <internalNodes>
            0 -1 656 -1.7230734229087830e-01</internalNodes>
          <leafValues>
            7.3699766397476196e-01 -8.9329615235328674e-02</leafValues></_>
        <_>
          <internalNodes>
            0 -1 215 -8.8238721946254373e-04</internalNodes>
          <leafValues>
            -3.6915969848632813e-01 1.4688912034034729e-01</leafValues></_>
        <_>
          <internalNodes>
            0 -1 891 7.9977704444900155e-04</internalNodes>
          <leafValues>
            -2.0121324062347412e-01 3.3013656735420227e-01</leafValues></_>
        <_>
          <internalNodes>
            0 -1 573 -2.2954549640417099e-03</internalNodes>
          <leafValues>
            2.6366427540779114e-01 -2.3462387919425964e-01</leafValues></_>
        <_>
          <internalNodes>
            0 -1 76 -1.0980973020195961e-03</internalNodes>
          <leafValues>
            -3.1791183352470398e-01 2.0135807991027832e-01</leafValues></_>
        <_>
          <internalNodes>
            0 -1 779 -1.6110979486256838e-03</internalNodes>
          <leafValues>
            3.3417850732803345e-01 -1.3423977792263031e-01</leafValues></_>
        <_>
          <internalNodes>
            0 -1 147 -2.5267191231250763e-03</internalNodes>
          <leafValues>
            7.1554905176162720e-01 -8.0928757786750793e-02</leafValues></_>
        <_>
          <internalNodes>
            0 -1 165 4.0806975448504090e-05</internalNodes>
          <leafValues>
            1.7816704511642456e-01 -2.8653377294540405e-01</leafValues></_>
        <_>
          <internalNodes>
            0 -1 703 2.1072629839181900e-02</internalNodes>
          <leafValues>
            8.6839526891708374e-02 -5.3225624561309814e-01</leafValues></_>
        <_>
          <internalNodes>
            0 -1 803 -2.0337280875537544e-04</internalNodes>
          <leafValues>
            3.4660729765892029e-01 -1.2592194974422455e-01</leafValues></_>
        <_>
          <internalNodes>
            0 -1 830 1.4824727550148964e-03</internalNodes>
          <leafValues>
            9.7823187708854675e-02 -4.4791483879089355e-01</leafValues></_>
        <_>
          <internalNodes>
            0 -1 677 -6.3073786441236734e-04</internalNodes>
          <leafValues>
            3.6745816469192505e-01 -1.6201084852218628e-01</leafValues></_>
        <_>
          <internalNodes>
            0 -1 721 1.1597254779189825e-03</internalNodes>
          <leafValues>
            7.9007908701896667e-02 -5.4077649116516113e-01</leafValues></_>
        <_>
          <internalNodes>
            0 -1 50 -1.4606380136683583e-04</internalNodes>
          <leafValues>
            3.6281609535217285e-01 -1.4074937999248505e-01</leafValues></_>
        <_>
          <internalNodes>
            0 -1 791 3.3699022606015205e-04</internalNodes>
          <leafValues>
            -1.0567867010831833e-01 4.0843126177787781e-01</leafValues></_>
        <_>
          <internalNodes>
            0 -1 837 -5.2344263531267643e-04</internalNodes>
          <leafValues>
            -2.9252320528030396e-01 1.7239792644977570e-01</leafValues></_>
        <_>
          <internalNodes>
            0 -1 894 -9.9926162511110306e-03</internalNodes>
          <leafValues>
            5.7549887895584106e-01 -6.9950893521308899e-02</leafValues></_>
        <_>
          <internalNodes>
            0 -1 596 1.2567322701215744e-03</internalNodes>
          <leafValues>
            7.1463562548160553e-02 -5.5635291337966919e-01</leafValues></_>
        <_>
          <internalNodes>
            0 -1 855 6.3061423134058714e-04</internalNodes>
          <leafValues>
            -1.1778387427330017e-01 4.6094560623168945e-01</leafValues></_>
        <_>
          <internalNodes>
            0 -1 609 3.2542359549552202e-03</internalNodes>
          <leafValues>
            -7.5262263417243958e-02 5.2995717525482178e-01</leafValues></_>
        <_>
          <internalNodes>
            0 -1 306 -1.3634250499308109e-03</internalNodes>
          <leafValues>
            -4.3599629402160645e-01 1.2486118078231812e-01</leafValues></_>
        <_>
          <internalNodes>
            0 -1 563 -1.5850574709475040e-03</internalNodes>
          <leafValues>
            3.5415360331535339e-01 -1.5478575229644775e-01</leafValues></_>
        <_>
          <internalNodes>
            0 -1 474 1.2487432104535401e-04</internalNodes>
          <leafValues>
            1.5624141693115234e-01 -2.8101453185081482e-01</leafValues></_>
        <_>
          <internalNodes>
            0 -1 755 -3.1329347984865308e-04</internalNodes>
          <leafValues>
            2.5735506415367126e-01 -1.8184210360050201e-01</leafValues></_>
        <_>
          <internalNodes>
            0 -1 711 -3.2566892914474010e-03</internalNodes>
          <leafValues>
            -4.7326308488845825e-01 1.0145717859268188e-01</leafValues></_>
        <_>
          <internalNodes>
            0 -1 150 -3.3421148546040058e-03</internalNodes>
          <leafValues>
            6.0107886791229248e-01 -8.1670470535755157e-02</leafValues></_>
        <_>
          <internalNodes>
            0 -1 209 -1.7576137906871736e-04</internalNodes>
          <leafValues>
            -4.1224884986877441e-01 1.0852057486772537e-01</leafValues></_>
        <_>
          <internalNodes>
            0 -1 810 3.5735168494284153e-03</internalNodes>
          <leafValues>
            -1.0483733564615250e-01 4.2586347460746765e-01</leafValues></_>
        <_>
          <internalNodes>
            0 -1 259 3.8953669369220734e-02</internalNodes>
          <leafValues>
            9.9710352718830109e-02 -3.9633095264434814e-01</leafValues></_>
        <_>
          <internalNodes>
            0 -1 538 -1.4963092980906367e-03</internalNodes>
          <leafValues>
            3.3933416008949280e-01 -1.1598870903253555e-01</leafValues></_>
        <_>
          <internalNodes>
            0 -1 382 2.6673559099435806e-02</internalNodes>
          <leafValues>
            5.6388825178146362e-02 -8.0758994817733765e-01</leafValues></_>
        <_>
          <internalNodes>
            0 -1 542 2.4424900766462088e-04</internalNodes>
          <leafValues>
            1.4471240341663361e-01 -3.0330732464790344e-01</leafValues></_>
        <_>
          <internalNodes>
            0 -1 621 2.6114704087376595e-04</internalNodes>
          <leafValues>
            -1.3997098803520203e-01 4.0360739827156067e-01</leafValues></_>
        <_>
          <internalNodes>
            0 -1 472 -9.9757348652929068e-04</internalNodes>
          <leafValues>
            -4.9592018127441406e-01 8.2607403397560120e-02</leafValues></_>
        <_>
          <internalNodes>
            0 -1 390 6.4203690271824598e-04</internalNodes>
          <leafValues>
            -1.6412425041198730e-01 2.7975624799728394e-01</leafValues></_>
        <_>
          <internalNodes>
            0 -1 102 7.3223852086812258e-04</internalNodes>
          <leafValues>
