<?xml version="1.0"?>
<opencv_storage>
<stage15>
  <maxWeakCount>79</maxWeakCount>
  <stageThreshold>-1.6005744934082031e+00</stageThreshold>
  <weakClassifiers>
    <_>
      <internalNodes>
        0 -1 1529 -1.2939511239528656e-01</internalNodes>
      <leafValues>
        1.5577889978885651e-01 -9.3464052677154541e-01</leafValues></_>
    <_>
      <internalNodes>
        0 -1 71689 6.8172410828992724e-04</internalNodes>
      <leafValues>
        -1.7643350362777710e-01 5.7602590322494507e-01</leafValues></_>
    <_>
      <internalNodes>
        0 -1 64843 -6.5048167016357183e-04</internalNodes>
      <leafValues>
        3.6594408750534058e-01 -1.6284824907779694e-01</leafValues></_>
    <_>
      <internalNodes>
        0 -1 106113 -7.2084477869793773e-04</internalNodes>
      <leafValues>
        3.9586684107780457e-01 -1.3436755537986755e-01</leafValues></_>
    <_>
      <internalNodes>
        0 -1 117004 8.5808138828724623e-04</internalNodes>
      <leafValues>
        -8.4871716797351837e-02 6.1274725198745728e-01</leafValues></_>
    <_>
      <internalNodes>
        0 -1 115396 -1.5397196635603905e-02</internalNodes>
      <leafValues>
        4.6863228082656860e-01 -8.7710335850715637e-02</leafValues></_>
    <_>
      <internalNodes>
        0 -1 75703 3.8796491571702063e-04</internalNodes>
      <leafValues>
        -1.3455106317996979e-01 3.4170261025428772e-01</leafValues></_>
    <_>
      <internalNodes>
        0 -1 876 -9.5328944735229015e-04</internalNodes>
      <leafValues>
        -3.2887262105941772e-01 1.6690488159656525e-01</leafValues></_>
    <_>
      <internalNodes>
        0 -1 72750 3.6447629099711776e-04</internalNodes>
      <leafValues>
        1.6316980123519897e-01 -3.3930438756942749e-01</leafValues></_>
    <_>
      <internalNodes>
        0 -1 116756 4.2239465983584523e-04</internalNodes>
      <leafValues>
        -1.2369332462549210e-01 4.2281755805015564e-01</leafValues></_>
    <_>
      <internalNodes>
        0 -1 110382 -3.8770370883867145e-04</internalNodes>
      <leafValues>
        3.4417214989662170e-01 -1.1195934563875198e-01</leafValues></_>
    <_>
      <internalNodes>
        0 -1 90648 3.9117422420531511e-04</internalNodes>
      <leafValues>
        1.0930897295475006e-01 -4.0466862916946411e-01</leafValues></_>
    <_>
      <internalNodes>
        0 -1 66419 -2.2544508101418614e-04</internalNodes>
      <leafValues>
        4.8310235142707825e-01 -9.8357737064361572e-02</leafValues></_>
    <_>
      <internalNodes>
        0 -1 16048 2.7020922061637975e-05</internalNodes>
      <leafValues>
        1.7836840450763702e-01 -2.6048648357391357e-01</leafValues></_>
    <_>
      <internalNodes>
        0 -1 26121 4.9147149547934532e-03</internalNodes>
      <leafValues>
        -8.8865518569946289e-02 5.6449574232101440e-01</leafValues></_>
    <_>
      <internalNodes>
        0 -1 109936 -8.2251438871026039e-03</internalNodes>
      <leafValues>
        -7.6341146230697632e-01 6.4555294811725616e-02</leafValues></_>
    <_>
      <internalNodes>
        0 -1 93378 -2.4038729316089302e-04</internalNodes>
      <leafValues>
        3.1744232773780823e-01 -1.3785499334335327e-01</leafValues></_>
    <_>
      <internalNodes>
        0 -1 73284 8.7901942606549710e-05</internalNodes>
      <leafValues>
        1.4719277620315552e-01 -3.1320762634277344e-01</leafValues></_>
    <_>
      <internalNodes>
        0 -1 60288 4.8363942187279463e-04</internalNodes>
      <leafValues>
        -1.5445931255817413e-01 3.1303247809410095e-01</leafValues></_>
    <_>
      <internalNodes>
        0 -1 76519 9.8628979176282883e-03</internalNodes>
      <leafValues>
        1.1807892471551895e-01 -4.1286826133728027e-01</leafValues></_>
    <_>
      <internalNodes>
        0 -1 117610 -1.3830178068019450e-04</internalNodes>
      <leafValues>
        3.8098281621932983e-01 -1.2499396502971649e-01</leafValues></_>
    <_>
      <internalNodes>
        0 -1 16460 -3.9989917422644794e-04</internalNodes>
      <leafValues>
        -3.5680896043777466e-01 1.4999352395534515e-01</leafValues></_>
    <_>
      <internalNodes>
        0 -1 91022 -4.1452248115092516e-04</internalNodes>
      <leafValues>
        6.1607128381729126e-01 -8.4476634860038757e-02</leafValues></_>
    <_>
      <internalNodes>
        0 -1 78549 2.5638350052759051e-04</internalNodes>
      <leafValues>
        1.6114342212677002e-01 -3.3081117272377014e-01</leafValues></_>
    <_>
      <internalNodes>
        0 -1 8771 1.6079714987426996e-04</internalNodes>
      <leafValues>
        -1.2299033999443054e-01 3.7031745910644531e-01</leafValues></_>
    <_>
      <internalNodes>
        0 -1 8306 1.5051947906613350e-02</internalNodes>
      <leafValues>
        -6.1270166188478470e-02 7.7687686681747437e-01</leafValues></_>
    <_>
      <internalNodes>
        0 -1 60840 -5.7336466852575541e-04</internalNodes>
      <leafValues>
        -3.2411128282546997e-01 1.5550670027732849e-01</leafValues></_>
    <_>
      <internalNodes>
        0 -1 94393 1.7563804984092712e-02</internalNodes>
      <leafValues>
        -4.1373297572135925e-02 1.</leafValues></_>
    <_>
      <internalNodes>
        0 -1 71701 -3.1734639196656644e-04</internalNodes>
      <leafValues>
        3.7475177645683289e-01 -1.0747459530830383e-01</leafValues></_>
    <_>
      <internalNodes>
        0 -1 19158 5.5072005838155746e-02</internalNodes>
      <leafValues>
        5.8687888085842133e-02 -8.3723193407058716e-01</leafValues></_>
    <_>
      <internalNodes>
        0 -1 4028 -5.5653383024036884e-03</internalNodes>
      <leafValues>
        -6.4575707912445068e-01 6.3063502311706543e-02</leafValues></_>
    <_>
      <internalNodes>
        0 -1 119582 -7.1710841730237007e-03</internalNodes>
      <leafValues>
        8.4416204690933228e-01 -6.5323188900947571e-02</leafValues></_>
    <_>
      <internalNodes>
        0 -1 28375 2.4574622511863708e-03</internalNodes>
      <leafValues>
        -5.6232240051031113e-02 6.2827533483505249e-01</leafValues></_>
    <_>
      <internalNodes>
        0 -1 84896 -5.2837081253528595e-02</internalNodes>
      <leafValues>
        6.4900952577590942e-01 -6.0323785990476608e-02</leafValues></_>
    <_>
      <internalNodes>
        0 -1 120727 -1.7935308278538287e-04</internalNodes>
      <leafValues>
        -2.8959459066390991e-01 1.6115926206111908e-01</leafValues></_>
    <_>
      <internalNodes>
        0 -1 28456 -1.5904827159829438e-04</internalNodes>
      <leafValues>
        3.2308548688888550e-01 -1.6072881221771240e-01</leafValues></_>
    <_>
      <internalNodes>
        0 -1 114333 9.2500512255355716e-04</internalNodes>
      <leafValues>
        1.0411053895950317e-01 -4.4531318545341492e-01</leafValues></_>
    <_>
      <internalNodes>
        0 -1 114719 3.7055075517855585e-04</internalNodes>
      <leafValues>
        -1.6294237971305847e-01 2.8586643934249878e-01</leafValues></_>
    <_>
      <internalNodes>
        0 -1 110260 8.0831086961552501e-04</internalNodes>
      <leafValues>
        1.2080663442611694e-01 -3.4256130456924438e-01</leafValues></_>
    <_>
      <internalNodes>
        0 -1 116763 -1.5243698144331574e-03</internalNodes>
      <leafValues>
        4.0274509787559509e-01 -1.1549352109432220e-01</leafValues></_>
    <_>
      <internalNodes>
        0 -1 63032 -5.9522159397602081e-02</internalNodes>
      <leafValues>
        8.4309351444244385e-01 -5.7777833193540573e-02</leafValues></_>
    <_>
      <internalNodes>
        0 -1 79258 -3.0039623379707336e-03</internalNodes>
      <leafValues>
        -4.9953484535217285e-01 9.9724344909191132e-02</leafValues></_>
    <_>
      <internalNodes>
        0 -1 124679 1.5074435214046389e-04</internalNodes>
      <leafValues>
        8.7217658758163452e-02 -4.0845584869384766e-01</leafValues></_>
    <_>
      <internalNodes>
        0 -1 120277 -1.4169790665619075e-04</internalNodes>
      <leafValues>
        3.7734565138816833e-01 -1.1665272712707520e-01</leafValues></_>
    <_>
      <internalNodes>
        0 -1 70640 -2.1731237939093262e-04</internalNodes>
      <leafValues>
        4.8257011175155640e-01 -7.9746022820472717e-02</leafValues></_>
    <_>
      <internalNodes>
        0 -1 90748 -4.8965663881972432e-04</internalNodes>
      <leafValues>
        -4.4691047072410583e-01 1.0869444161653519e-01</leafValues></_>
    <_>
      <internalNodes>
        0 -1 72914 1.9345290958881378e-02</internalNodes>
      <leafValues>
        -5.2711881697177887e-02 8.0906051397323608e-01</leafValues></_>
    <_>
      <internalNodes>
        0 -1 10941 6.8285618908703327e-04</internalNodes>
      <leafValues>
        1.2345023453235626e-01 -3.3168217539787292e-01</leafValues></_>
    <_>
      <internalNodes>
        0 -1 110210 3.1780917197465897e-04</internalNodes>
      <leafValues>
        -1.2311799824237823e-01 3.6444056034088135e-01</leafValues></_>
    <_>
      <internalNodes>
        0 -1 63640 1.4662542380392551e-03</internalNodes>
      <leafValues>
        8.2116171717643738e-02 -4.9179118871688843e-01</leafValues></_>
    <_>
      <internalNodes>
        0 -1 83708 -2.0101974951103330e-04</internalNodes>
      <leafValues>
        3.3091911673545837e-01 -1.2613077461719513e-01</leafValues></_>
    <_>
      <internalNodes>
        0 -1 101721 -2.3368697613477707e-02</internalNodes>
      <leafValues>
        -7.1276730298995972e-01 5.7685285806655884e-02</leafValues></_>
    <_>
      <internalNodes>
        0 -1 3664 -1.1576926044654101e-04</internalNodes>
      <leafValues>
        -3.4236952662467957e-01 1.0065120458602905e-01</leafValues></_>
    <_>
      <internalNodes>
        0 -1 69384 1.8991499382536858e-04</internalNodes>
      <leafValues>
        -9.1371186077594757e-02 5.1533341407775879e-01</leafValues></_>
    <_>
      <internalNodes>
        0 -1 66545 3.6902368068695068e-02</internalNodes>
      <leafValues>
        4.7379530966281891e-02 -9.5552188158035278e-01</leafValues></_>
    <_>
      <internalNodes>
        0 -1 68893 -8.3075684960931540e-04</internalNodes>
      <leafValues>
        4.8319903016090393e-01 -9.2995807528495789e-02</leafValues></_>
    <_>
      <internalNodes>
        0 -1 122119 1.6679006512276828e-04</internalNodes>
      <leafValues>
        1.1963717639446259e-01 -3.5713091492652893e-01</leafValues></_>
    <_>
      <internalNodes>
        0 -1 45391 -1.3211779296398163e-03</internalNodes>
      <leafValues>
        4.8241013288497925e-01 -8.0491825938224792e-02</leafValues></_>
    <_>
      <internalNodes>
        0 -1 7945 7.7893637353554368e-05</internalNodes>
      <leafValues>
        8.4036871790885925e-02 -4.0091159939765930e-01</leafValues></_>
    <_>
      <internalNodes>
        0 -1 68879 1.3816854334436357e-04</internalNodes>
      <leafValues>
        -1.0596493631601334e-01 4.1268557310104370e-01</leafValues></_>
    <_>
      <internalNodes>
        0 -1 36613 1.5825800364837050e-03</internalNodes>
      <leafValues>
        9.1671802103519440e-02 -3.7362161278724670e-01</leafValues></_>
    <_>
      <internalNodes>
        0 -1 7660 7.4384704232215881e-02</internalNodes>
      <leafValues>
        -8.3919800817966461e-02 4.7258600592613220e-01</leafValues></_>
    <_>
      <internalNodes>
        0 -1 121632 1.1199774220585823e-02</internalNodes>
      <leafValues>
        9.4031549990177155e-02 -4.6202051639556885e-01</leafValues></_>
    <_>
      <internalNodes>
        0 -1 105758 3.9842985570430756e-03</internalNodes>
      <leafValues>
        -7.2475031018257141e-02 6.1845624446868896e-01</leafValues></_>
    <_>
      <internalNodes>
        0 -1 15059 2.5319260358810425e-01</internalNodes>
      <leafValues>
        7.0571459829807281e-02 -5.7863551378250122e-01</leafValues></_>
    <_>
      <internalNodes>
        0 -1 118118 7.2893417382147163e-05</internalNodes>
      <leafValues>
        -1.3036477565765381e-01 2.8953394293785095e-01</leafValues></_>
    <_>
      <internalNodes>
        0 -1 103525 4.2738164775073528e-03</internalNodes>
      <leafValues>
        8.8503792881965637e-02 -4.8223194479942322e-01</leafValues></_>
    <_>
      <internalNodes>
        0 -1 118160 6.1038611456751823e-03</internalNodes>
      <leafValues>
        -4.1434966027736664e-02 8.4860497713088989e-01</leafValues></_>
    <_>
      <internalNodes>
        0 -1 21092 -2.0128812640905380e-02</internalNodes>
      <leafValues>
        -5.6391704082489014e-01 6.8580642342567444e-02</leafValues></_>
    <_>
      <internalNodes>
        0 -1 81356 9.9501165095716715e-05</internalNodes>
      <leafValues>
        -1.0751548409461975e-01 3.7923881411552429e-01</leafValues></_>
    <_>
      <internalNodes>
        0 -1 87853 3.0219764448702335e-03</internalNodes>
      <leafValues>
        1.1337177455425262e-01 -2.9671210050582886e-01</leafValues></_>
    <_>
      <internalNodes>
        0 -1 114721 1.5041262668091804e-04</internalNodes>
      <leafValues>
        -8.9582793414592743e-02 3.7092924118041992e-01</leafValues></_>
    <_>
      <internalNodes>
        0 -1 114432 9.6911983564496040e-03</internalNodes>
      <leafValues>
        4.9510516226291656e-02 -6.3976067304611206e-01</leafValues></_>
    <_>
      <internalNodes>
        0 -1 71689 6.8172410828992724e-04</internalNodes>
      <leafValues>
        -5.3983278572559357e-02 6.2920212745666504e-01</leafValues></_>
    <_>
      <internalNodes>
        0 -1 321 3.2761145121185109e-05</internalNodes>
      <leafValues>
        9.0941339731216431e-02 -3.4834936261177063e-01</leafValues></_>
    <_>
      <internalNodes>
        0 -1 110190 -3.7264768616296351e-04</internalNodes>
      <leafValues>
        3.3423092961311340e-01 -8.9379519224166870e-02</leafValues></_>
    <_>
      <internalNodes>
        0 -1 86723 -1.2849410995841026e-03</internalNodes>
      <leafValues>
        -6.3428968191146851e-01 3.9455875754356384e-02</leafValues></_>
    <_>
      <internalNodes>
        0 -1 41435 -6.9594800472259521e-02</internalNodes>
      <leafValues>
        7.6037693023681641e-01 -3.9310604333877563e-02</leafValues></_>
    <_>
      <internalNodes>
        0 -1 81367 5.8616878231987357e-04</internalNodes>
      <leafValues>
        8.9306637644767761e-02 -3.7143224477767944e-01</leafValues></_></weakClassifiers></stage15>
</opencv_storage>
