<?xml version="1.0"?>
<opencv_storage>
<stage10>
  <maxWeakCount>73</maxWeakCount>
  <stageThreshold>-1.5957518815994263e+00</stageThreshold>
  <weakClassifiers>
    <_>
      <internalNodes>
        0 -1 11 -7.7552320435643196e-03</internalNodes>
      <leafValues>
        1.5843270719051361e-01 -8.7730062007904053e-01</leafValues></_>
    <_>
      <internalNodes>
        0 -1 18861 1.8709367141127586e-03</internalNodes>
      <leafValues>
        -1.9800598919391632e-01 3.3157983422279358e-01</leafValues></_>
    <_>
      <internalNodes>
        0 -1 111942 7.2141843847930431e-03</internalNodes>
      <leafValues>
        7.5605377554893494e-02 -7.5633966922760010e-01</leafValues></_>
    <_>
      <internalNodes>
        0 -1 110362 1.0822068434208632e-03</internalNodes>
      <leafValues>
        6.4858563244342804e-02 -6.8702518939971924e-01</leafValues></_>
    <_>
      <internalNodes>
        0 -1 23554 -6.3042156398296356e-04</internalNodes>
      <leafValues>
        7.5824528932571411e-02 -6.3673990964889526e-01</leafValues></_>
    <_>
      <internalNodes>
        0 -1 46610 -1.3290791213512421e-01</internalNodes>
      <leafValues>
        -8.7089963257312775e-02 7.7182722091674805e-01</leafValues></_>
    <_>
      <internalNodes>
        0 -1 11751 -6.0272552073001862e-02</internalNodes>
      <leafValues>
        2.4470764398574829e-01 -3.4919604659080505e-01</leafValues></_>
    <_>
      <internalNodes>
        0 -1 112617 -5.9797824360430241e-04</internalNodes>
      <leafValues>
        3.5489854216575623e-01 -1.4881235361099243e-01</leafValues></_>
    <_>
      <internalNodes>
        0 -1 85652 -1.7819614149630070e-03</internalNodes>
      <leafValues>
        -4.2074367403984070e-01 1.3217410445213318e-01</leafValues></_>
    <_>
      <internalNodes>
        0 -1 120273 1.1143751908093691e-04</internalNodes>
      <leafValues>
        -1.9144864380359650e-01 2.8382068872451782e-01</leafValues></_>
    <_>
      <internalNodes>
        0 -1 114611 5.2066100761294365e-04</internalNodes>
      <leafValues>
        9.4292879104614258e-02 -5.4950660467147827e-01</leafValues></_>
    <_>
      <internalNodes>
        0 -1 55081 5.4483240091940388e-05</internalNodes>
      <leafValues>
        -1.6066671907901764e-01 3.2118904590606689e-01</leafValues></_>
    <_>
      <internalNodes>
        0 -1 34721 9.0669398196041584e-04</internalNodes>
      <leafValues>
        7.2159595787525177e-02 -6.0417681932449341e-01</leafValues></_>
    <_>
      <internalNodes>
        0 -1 121313 -7.7331340871751308e-03</internalNodes>
      <leafValues>
        9.5463478565216064e-01 -5.5662337690591812e-02</leafValues></_>
    <_>
      <internalNodes>
        0 -1 112817 3.4448015503585339e-04</internalNodes>
      <leafValues>
        9.5847934484481812e-02 -4.9998277425765991e-01</leafValues></_>
    <_>
      <internalNodes>
        0 -1 120273 -2.9472110327333212e-04</internalNodes>
      <leafValues>
        4.0262475609779358e-01 -1.3620312511920929e-01</leafValues></_>
    <_>
      <internalNodes>
        0 -1 122084 -1.0906621813774109e-02</internalNodes>
      <leafValues>
        4.9587330222129822e-01 -1.0141595453023911e-01</leafValues></_>
    <_>
      <internalNodes>
        0 -1 123918 9.0168742462992668e-04</internalNodes>
      <leafValues>
        9.0659148991107941e-02 -6.6948670148849487e-01</leafValues></_>
    <_>
      <internalNodes>
        0 -1 93378 -1.5604513464495540e-04</internalNodes>
      <leafValues>
        2.9301193356513977e-01 -1.7506879568099976e-01</leafValues></_>
    <_>
      <internalNodes>
        0 -1 10509 9.5689203590154648e-05</internalNodes>
      <leafValues>
        1.9244939088821411e-01 -2.6959639787673950e-01</leafValues></_>
    <_>
      <internalNodes>
        0 -1 120808 7.2139967232942581e-03</internalNodes>
      <leafValues>
        -8.4717474877834320e-02 7.4433898925781250e-01</leafValues></_>
    <_>
      <internalNodes>
        0 -1 121221 -5.5614737793803215e-03</internalNodes>
      <leafValues>
        -5.4985892772674561e-01 1.0875080525875092e-01</leafValues></_>
    <_>
      <internalNodes>
        0 -1 56992 8.5998128633946180e-04</internalNodes>
      <leafValues>
        -1.8206824362277985e-01 2.9363790154457092e-01</leafValues></_>
    <_>
      <internalNodes>
        0 -1 77701 -1.8415234517306089e-03</internalNodes>
      <leafValues>
        -4.4200628995895386e-01 1.2536349892616272e-01</leafValues></_>
    <_>
      <internalNodes>
        0 -1 1776 -1.1921977624297142e-02</internalNodes>
      <leafValues>
        4.4258961081504822e-01 -1.2456063926219940e-01</leafValues></_>
    <_>
      <internalNodes>
        0 -1 76296 1.1880745296366513e-04</internalNodes>
      <leafValues>
        1.2474965304136276e-01 -4.3331804871559143e-01</leafValues></_>
    <_>
      <internalNodes>
        0 -1 64178 1.4824600657448173e-04</internalNodes>
      <leafValues>
        -1.8876315653324127e-01 3.3824753761291504e-01</leafValues></_>
    <_>
      <internalNodes>
        0 -1 103 2.7317003696225584e-04</internalNodes>
      <leafValues>
        1.1305361986160278e-01 -4.1685482859611511e-01</leafValues></_>
    <_>
      <internalNodes>
        0 -1 2632 -1.3340774923563004e-02</internalNodes>
      <leafValues>
        8.0733871459960938e-01 -5.7632323354482651e-02</leafValues></_>
    <_>
      <internalNodes>
        0 -1 114749 -5.9479223564267159e-03</internalNodes>
      <leafValues>
        9.3711411952972412e-01 -3.5503648221492767e-02</leafValues></_>
    <_>
      <internalNodes>
        0 -1 120100 1.3028235407546163e-03</internalNodes>
      <leafValues>
        1.3515892624855042e-01 -3.5636869072914124e-01</leafValues></_>
    <_>
      <internalNodes>
        0 -1 120666 -1.1408056598156691e-03</internalNodes>
      <leafValues>
        5.5358195304870605e-01 -9.9247239530086517e-02</leafValues></_>
    <_>
      <internalNodes>
        0 -1 37002 4.6831709332764149e-03</internalNodes>
      <leafValues>
        1.0368167608976364e-01 -4.7759187221527100e-01</leafValues></_>
    <_>
      <internalNodes>
        0 -1 69385 -8.3162228111177683e-04</internalNodes>
      <leafValues>
        3.6671355366706848e-01 -1.6033023595809937e-01</leafValues></_>
    <_>
      <internalNodes>
        0 -1 118285 -1.4958474785089493e-03</internalNodes>
      <leafValues>
        -3.7531366944313049e-01 1.1175978928804398e-01</leafValues></_>
    <_>
      <internalNodes>
        0 -1 9336 -1.3839346356689930e-03</internalNodes>
      <leafValues>
        6.8405830860137939e-01 -8.0785274505615234e-02</leafValues></_>
    <_>
      <internalNodes>
        0 -1 68815 6.1170039698481560e-03</internalNodes>
      <leafValues>
        1.3652242720127106e-01 -3.5658958554267883e-01</leafValues></_>
    <_>
      <internalNodes>
        0 -1 97002 2.0240267622284591e-04</internalNodes>
      <leafValues>
        -1.5754677355289459e-01 3.1921869516372681e-01</leafValues></_>
    <_>
      <internalNodes>
        0 -1 5497 -1.3845576904714108e-04</internalNodes>
      <leafValues>
        -3.5985547304153442e-01 1.2066911160945892e-01</leafValues></_>
    <_>
      <internalNodes>
        0 -1 84723 9.5180934295058250e-04</internalNodes>
      <leafValues>
        -1.1094421893358231e-01 3.7257704138755798e-01</leafValues></_>
    <_>
      <internalNodes>
        0 -1 10361 -3.9446150185540318e-04</internalNodes>
      <leafValues>
        -3.2278645038604736e-01 1.4837870001792908e-01</leafValues></_>
    <_>
      <internalNodes>
        0 -1 38961 -3.4197352943010628e-04</internalNodes>
      <leafValues>
        4.3076980113983154e-01 -1.0646181553602219e-01</leafValues></_>
    <_>
      <internalNodes>
        0 -1 91672 9.7311533987522125e-02</internalNodes>
      <leafValues>
        -5.9184420853853226e-02 6.8221944570541382e-01</leafValues></_>
    <_>
      <internalNodes>
        0 -1 113477 -9.0381596237421036e-03</internalNodes>
      <leafValues>
        -8.1336575746536255e-01 6.7459113895893097e-02</leafValues></_>
    <_>
      <internalNodes>
        0 -1 86782 2.7593472972512245e-02</internalNodes>
      <leafValues>
        -6.4575769007205963e-02 7.5187963247299194e-01</leafValues></_>
    <_>
      <internalNodes>
        0 -1 117493 2.6430534198880196e-03</internalNodes>
      <leafValues>
        1.1804673820734024e-01 -3.8566154241561890e-01</leafValues></_>
    <_>
      <internalNodes>
        0 -1 118137 -9.7345601534470916e-04</internalNodes>
      <leafValues>
        6.8281072378158569e-01 -6.1118997633457184e-02</leafValues></_>
    <_>
      <internalNodes>
        0 -1 47184 8.5280858911573887e-04</internalNodes>
      <leafValues>
        8.6158134043216705e-02 -4.8798453807830811e-01</leafValues></_>
    <_>
      <internalNodes>
        0 -1 14765 2.0253664115443826e-04</internalNodes>
      <leafValues>
        -1.5821613371372223e-01 3.3127269148826599e-01</leafValues></_>
    <_>
      <internalNodes>
        0 -1 121192 6.6514324862509966e-04</internalNodes>
      <leafValues>
        1.1973164975643158e-01 -3.7662374973297119e-01</leafValues></_>
    <_>
      <internalNodes>
        0 -1 4599 5.0876103341579437e-02</internalNodes>
      <leafValues>
        7.0121139287948608e-02 -7.4320232868194580e-01</leafValues></_>
    <_>
      <internalNodes>
        0 -1 68343 1.3622749247588217e-04</internalNodes>
      <leafValues>
        -1.3338449597358704e-01 3.4763208031654358e-01</leafValues></_>
    <_>
      <internalNodes>
        0 -1 17481 1.9167435821145773e-03</internalNodes>
      <leafValues>
        7.6611526310443878e-02 -5.8145582675933838e-01</leafValues></_>
    <_>
      <internalNodes>
        0 -1 92273 1.0161908576264977e-03</internalNodes>
      <leafValues>
        -1.3390864431858063e-01 3.0264246463775635e-01</leafValues></_>
    <_>
      <internalNodes>
        0 -1 121746 3.4795599058270454e-03</internalNodes>
      <leafValues>
        1.0394582152366638e-01 -4.3090075254440308e-01</leafValues></_>
    <_>
      <internalNodes>
        0 -1 71741 2.3470883024856448e-04</internalNodes>
      <leafValues>
        -1.2551809847354889e-01 3.1445756554603577e-01</leafValues></_>
    <_>
      <internalNodes>
        0 -1 1981 8.8476590462960303e-05</internalNodes>
      <leafValues>
        1.3390056788921356e-01 -3.3842602372169495e-01</leafValues></_>
    <_>
      <internalNodes>
        0 -1 122823 -3.1405221670866013e-04</internalNodes>
      <leafValues>
        3.5064926743507385e-01 -1.0597392916679382e-01</leafValues></_>
    <_>
      <internalNodes>
        0 -1 108236 2.9851794242858887e-03</internalNodes>
      <leafValues>
        9.6227996051311493e-02 -4.8747903108596802e-01</leafValues></_>
    <_>
      <internalNodes>
        0 -1 112447 -2.2905744612216949e-02</internalNodes>
      <leafValues>
        7.2417432069778442e-01 -5.4777275770902634e-02</leafValues></_>
    <_>
      <internalNodes>
        0 -1 60744 2.0962590351700783e-03</internalNodes>
      <leafValues>
        -3.1230162829160690e-02 7.6950848102569580e-01</leafValues></_>
    <_>
      <internalNodes>
        0 -1 83055 1.6067910194396973e-01</internalNodes>
      <leafValues>
        4.3037202209234238e-02 -8.3263146877288818e-01</leafValues></_>
    <_>
      <internalNodes>
        0 -1 123468 8.4688570350408554e-03</internalNodes>
      <leafValues>
        -4.1447635740041733e-02 9.1911977529525757e-01</leafValues></_>
    <_>
      <internalNodes>
        0 -1 62561 1.4895448088645935e-01</internalNodes>
      <leafValues>
        4.5897513628005981e-02 -8.6377298831939697e-01</leafValues></_>
    <_>
      <internalNodes>
        0 -1 114855 -1.6578441136516631e-04</internalNodes>
      <leafValues>
        -3.7543302774429321e-01 8.2357130944728851e-02</leafValues></_>
    <_>
      <internalNodes>
        0 -1 36544 -2.2406774223782122e-04</internalNodes>
      <leafValues>
        3.8038012385368347e-01 -1.1666069179773331e-01</leafValues></_>
    <_>
      <internalNodes>
        0 -1 113699 6.7298539215698838e-04</internalNodes>
      <leafValues>
        5.1096148788928986e-02 -6.8283200263977051e-01</leafValues></_>
    <_>
      <internalNodes>
        0 -1 39162 -2.1209847182035446e-03</internalNodes>
      <leafValues>
        2.7281257510185242e-01 -1.2817472219467163e-01</leafValues></_>
    <_>
      <internalNodes>
        0 -1 109400 2.3770175175741315e-05</internalNodes>
      <leafValues>
        1.1812847852706909e-01 -3.4349378943443298e-01</leafValues></_>
    <_>
      <internalNodes>
        0 -1 109124 -1.1155011132359505e-02</internalNodes>
      <leafValues>
        7.7923750877380371e-01 -4.3220218271017075e-02</leafValues></_>
    <_>
      <internalNodes>
        0 -1 110066 -7.2470656596124172e-04</internalNodes>
      <leafValues>
        -7.0778465270996094e-01 5.6903190910816193e-02</leafValues></_>
    <_>
      <internalNodes>
        0 -1 64163 1.4604642638005316e-04</internalNodes>
      <leafValues>
        -1.0511975735425949e-01 3.5583516955375671e-01</leafValues></_>
    <_>
      <internalNodes>
        0 -1 106337 -5.0169765017926693e-04</internalNodes>
      <leafValues>
        -4.2412364482879639e-01 9.8255790770053864e-02</leafValues></_></weakClassifiers></stage10>
</opencv_storage>
