<?xml version="1.0"?>
<opencv_storage>
<stage11>
  <maxWeakCount>80</maxWeakCount>
  <stageThreshold>-1.7375825643539429e+00</stageThreshold>
  <weakClassifiers>
    <_>
      <internalNodes>
        0 -1 49975 -7.9721324145793915e-03</internalNodes>
      <leafValues>
        2.2557726502418518e-01 -9.4652408361434937e-01</leafValues></_>
    <_>
      <internalNodes>
        0 -1 110704 -1.6854578629136086e-02</internalNodes>
      <leafValues>
        4.3342515826225281e-01 -2.9083490371704102e-01</leafValues></_>
    <_>
      <internalNodes>
        0 -1 68356 -5.0004210788756609e-04</internalNodes>
      <leafValues>
        4.4144856929779053e-01 -1.6213512420654297e-01</leafValues></_>
    <_>
      <internalNodes>
        0 -1 86622 -1.0476118768565357e-04</internalNodes>
      <leafValues>
        3.0687126517295837e-01 -1.7893686890602112e-01</leafValues></_>
    <_>
      <internalNodes>
        0 -1 9780 1.7195419786730781e-05</internalNodes>
      <leafValues>
        1.6886103153228760e-01 -3.4581577777862549e-01</leafValues></_>
    <_>
      <internalNodes>
        0 -1 62614 -6.8474537692964077e-04</internalNodes>
      <leafValues>
        4.1245347261428833e-01 -1.5006993710994720e-01</leafValues></_>
    <_>
      <internalNodes>
        0 -1 38981 3.9369799196720123e-02</internalNodes>
      <leafValues>
        -6.4703613519668579e-02 7.4529767036437988e-01</leafValues></_>
    <_>
      <internalNodes>
        0 -1 27089 -8.2673097494989634e-05</internalNodes>
      <leafValues>
        -3.3084106445312500e-01 1.6456340253353119e-01</leafValues></_>
    <_>
      <internalNodes>
        0 -1 18880 -8.8371662423014641e-04</internalNodes>
      <leafValues>
        2.9051411151885986e-01 -1.9660690426826477e-01</leafValues></_>
    <_>
      <internalNodes>
        0 -1 72535 3.7103824317455292e-02</internalNodes>
      <leafValues>
        1.0511768609285355e-01 -6.1498534679412842e-01</leafValues></_>
    <_>
      <internalNodes>
        0 -1 105257 -5.4479036480188370e-03</internalNodes>
      <leafValues>
        3.9354974031448364e-01 -1.4246122539043427e-01</leafValues></_>
    <_>
      <internalNodes>
        0 -1 112817 3.8624921580776572e-04</internalNodes>
      <leafValues>
        7.7495224773883820e-02 -6.1137986183166504e-01</leafValues></_>
    <_>
      <internalNodes>
        0 -1 18224 -3.4334843803662807e-05</internalNodes>
      <leafValues>
        3.4558111429214478e-01 -1.4252182841300964e-01</leafValues></_>
    <_>
      <internalNodes>
        0 -1 9053 -5.5706431157886982e-04</internalNodes>
      <leafValues>
        -7.4313324689865112e-01 6.8656511604785919e-02</leafValues></_>
    <_>
      <internalNodes>
        0 -1 40553 -3.0773793696425855e-04</internalNodes>
      <leafValues>
        3.3443507552146912e-01 -1.4814491569995880e-01</leafValues></_>
    <_>
      <internalNodes>
        0 -1 63887 -9.7645250207278877e-05</internalNodes>
      <leafValues>
        -3.7536552548408508e-01 1.3496166467666626e-01</leafValues></_>
    <_>
      <internalNodes>
        0 -1 67096 2.8877839213237166e-04</internalNodes>
      <leafValues>
        -1.3764870166778564e-01 4.0224549174308777e-01</leafValues></_>
    <_>
      <internalNodes>
        0 -1 72750 3.8779777241870761e-04</internalNodes>
      <leafValues>
        1.4904241263866425e-01 -3.8737776875495911e-01</leafValues></_>
    <_>
      <internalNodes>
        0 -1 80533 -3.5959010710939765e-04</internalNodes>
      <leafValues>
        -3.4267765283584595e-01 1.6246913373470306e-01</leafValues></_>
    <_>
      <internalNodes>
        0 -1 57511 -2.6170286582782865e-04</internalNodes>
      <leafValues>
        3.7463566660881042e-01 -2.0294603705406189e-01</leafValues></_>
    <_>
      <internalNodes>
        0 -1 101841 -9.8133884370326996e-02</internalNodes>
      <leafValues>
        -6.1754679679870605e-01 9.9068678915500641e-02</leafValues></_>
    <_>
      <internalNodes>
        0 -1 15871 4.3752295896410942e-03</internalNodes>
      <leafValues>
        -1.7440174520015717e-01 3.2458978891372681e-01</leafValues></_>
    <_>
      <internalNodes>
        0 -1 120767 2.2156883496791124e-03</internalNodes>
      <leafValues>
        1.4845053851604462e-01 -3.4280174970626831e-01</leafValues></_>
    <_>
      <internalNodes>
        0 -1 79919 -3.3002882264554501e-03</internalNodes>
      <leafValues>
        3.6731889843940735e-01 -1.5872067213058472e-01</leafValues></_>
    <_>
      <internalNodes>
        0 -1 104465 3.3563729375600815e-03</internalNodes>
      <leafValues>
        9.2455565929412842e-02 -6.2670183181762695e-01</leafValues></_>
    <_>
      <internalNodes>
        0 -1 15586 -6.8106886465102434e-04</internalNodes>
      <leafValues>
        4.0215054154396057e-01 -1.2948702275753021e-01</leafValues></_>
    <_>
      <internalNodes>
        0 -1 38180 -1.6952310397755355e-04</internalNodes>
      <leafValues>
        -3.6967048048973083e-01 1.4454381167888641e-01</leafValues></_>
    <_>
      <internalNodes>
        0 -1 5742 -4.8153489478863776e-04</internalNodes>
      <leafValues>
        5.7718509435653687e-01 -9.5458090305328369e-02</leafValues></_>
    <_>
      <internalNodes>
        0 -1 876 4.0091568371281028e-04</internalNodes>
      <leafValues>
        1.7307537794113159e-01 -3.4834137558937073e-01</leafValues></_>
    <_>
      <internalNodes>
        0 -1 5742 1.3185301213525236e-04</internalNodes>
      <leafValues>
        -1.4521032571792603e-01 3.6479887366294861e-01</leafValues></_>
    <_>
      <internalNodes>
        0 -1 9659 1.8064674222841859e-03</internalNodes>
      <leafValues>
        1.1325664818286896e-01 -4.4462376832962036e-01</leafValues></_>
    <_>
      <internalNodes>
        0 -1 119827 -6.0646270867437124e-04</internalNodes>
      <leafValues>
        3.5275241732597351e-01 -1.4156450331211090e-01</leafValues></_>
    <_>
      <internalNodes>
        0 -1 123127 -1.6124213114380836e-02</internalNodes>
      <leafValues>
        5.5579888820648193e-01 -7.8856453299522400e-02</leafValues></_>
    <_>
      <internalNodes>
        0 -1 8205 1.3871289411326870e-05</internalNodes>
      <leafValues>
        1.5047803521156311e-01 -3.2550367712974548e-01</leafValues></_>
    <_>
      <internalNodes>
        0 -1 6961 -9.3356287106871605e-04</internalNodes>
      <leafValues>
        5.0504827499389648e-01 -9.5003724098205566e-02</leafValues></_>
    <_>
      <internalNodes>
        0 -1 121444 -3.6680253106169403e-04</internalNodes>
      <leafValues>
        -5.2503091096878052e-01 9.2361763119697571e-02</leafValues></_>
    <_>
      <internalNodes>
        0 -1 61138 -1.8190745322499424e-04</internalNodes>
      <leafValues>
        3.2847458124160767e-01 -1.4944382011890411e-01</leafValues></_>
    <_>
      <internalNodes>
        0 -1 6739 -7.0817812229506671e-05</internalNodes>
      <leafValues>
        -3.9747053384780884e-01 1.2385594099760056e-01</leafValues></_>
    <_>
      <internalNodes>
        0 -1 52317 4.5220269821584225e-03</internalNodes>
      <leafValues>
        7.6534777879714966e-02 -6.5610569715499878e-01</leafValues></_>
    <_>
      <internalNodes>
        0 -1 47261 -7.7949231490492821e-04</internalNodes>
      <leafValues>
        4.1708520054817200e-01 -1.3319197297096252e-01</leafValues></_>
    <_>
      <internalNodes>
        0 -1 74706 7.0938578573986888e-04</internalNodes>
      <leafValues>
        1.0227697342634201e-01 -4.4218087196350098e-01</leafValues></_>
    <_>
      <internalNodes>
        0 -1 118038 1.4442013343796134e-04</internalNodes>
      <leafValues>
        -1.2941089272499084e-01 3.6470451951026917e-01</leafValues></_>
    <_>
      <internalNodes>
        0 -1 15028 1.1366316117346287e-02</internalNodes>
      <leafValues>
        1.4796578884124756e-01 -2.7626198530197144e-01</leafValues></_>
    <_>
      <internalNodes>
        0 -1 15 -6.3023976981639862e-03</internalNodes>
      <leafValues>
        7.4887883663177490e-01 -6.1664301902055740e-02</leafValues></_>
    <_>
      <internalNodes>
        0 -1 51640 -1.9458887982182205e-04</internalNodes>
      <leafValues>
        -5.6609892845153809e-01 8.4494814276695251e-02</leafValues></_>
    <_>
      <internalNodes>
        0 -1 87875 -2.8395776171237230e-03</internalNodes>
      <leafValues>
        4.5432290434837341e-01 -1.1258765310049057e-01</leafValues></_>
    <_>
      <internalNodes>
        0 -1 5079 -5.9068603150080889e-05</internalNodes>
      <leafValues>
        -4.3425089120864868e-01 9.7355276346206665e-02</leafValues></_>
    <_>
      <internalNodes>
        0 -1 55321 -1.0206679871771485e-04</internalNodes>
      <leafValues>
        3.9073893427848816e-01 -1.2337455898523331e-01</leafValues></_>
    <_>
      <internalNodes>
        0 -1 117638 -1.9200300797820091e-02</internalNodes>
      <leafValues>
        5.0208860635757446e-01 -7.8397229313850403e-02</leafValues></_>
    <_>
      <internalNodes>
        0 -1 78932 -4.2591597884893417e-03</internalNodes>
      <leafValues>
        -8.2679426670074463e-01 5.3488392382860184e-02</leafValues></_>
    <_>
      <internalNodes>
        0 -1 64969 9.9104840774089098e-04</internalNodes>
      <leafValues>
        -6.7724548280239105e-02 5.7858157157897949e-01</leafValues></_>
    <_>
      <internalNodes>
        0 -1 38966 -2.6831839932128787e-04</internalNodes>
      <leafValues>
        -4.4987648725509644e-01 1.0465119034051895e-01</leafValues></_>
    <_>
      <internalNodes>
        0 -1 2 -2.8495190143585205e+00</internalNodes>
      <leafValues>
        -8.9403992891311646e-01 3.7208374589681625e-02</leafValues></_>
    <_>
      <internalNodes>
        0 -1 48171 -1.6151573508977890e-02</internalNodes>
      <leafValues>
        6.7123752832412720e-01 -6.0962196439504623e-02</leafValues></_>
    <_>
      <internalNodes>
        0 -1 99041 -1.5873888507485390e-02</internalNodes>
      <leafValues>
        -7.0380246639251709e-01 6.1957322061061859e-02</leafValues></_>
    <_>
      <internalNodes>
        0 -1 7475 3.1358348205685616e-03</internalNodes>
      <leafValues>
        8.8755741715431213e-02 -3.6750680208206177e-01</leafValues></_>
    <_>
      <internalNodes>
        0 -1 68879 -1.2966296344529837e-04</internalNodes>
      <leafValues>
        4.7901448607444763e-01 -9.5171980559825897e-02</leafValues></_>
    <_>
      <internalNodes>
        0 -1 89897 -2.6325709768570960e-05</internalNodes>
      <leafValues>
        -3.5039037466049194e-01 1.1308592557907104e-01</leafValues></_>
    <_>
      <internalNodes>
        0 -1 84174 5.5630586575716734e-04</internalNodes>
      <leafValues>
        -8.1798471510410309e-02 6.2322151660919189e-01</leafValues></_>
    <_>
      <internalNodes>
        0 -1 41341 2.6733251288533211e-02</internalNodes>
      <leafValues>
        4.6992857009172440e-02 -7.4774318933486938e-01</leafValues></_>
    <_>
      <internalNodes>
        0 -1 4363 6.5875705331563950e-04</internalNodes>
      <leafValues>
        -7.5332246720790863e-02 5.1013851165771484e-01</leafValues></_>
    <_>
      <internalNodes>
        0 -1 9562 7.3911098297685385e-04</internalNodes>
      <leafValues>
        8.7802290916442871e-02 -4.5701590180397034e-01</leafValues></_>
    <_>
      <internalNodes>
        0 -1 98874 -2.2541116923093796e-03</internalNodes>
      <leafValues>
        4.8093339800834656e-01 -7.1783363819122314e-02</leafValues></_>
    <_>
      <internalNodes>
        0 -1 71337 5.9697590768337250e-03</internalNodes>
      <leafValues>
        5.7206094264984131e-02 -5.5009901523590088e-01</leafValues></_>
    <_>
      <internalNodes>
        0 -1 65003 2.6165961753576994e-04</internalNodes>
      <leafValues>
        -9.9033370614051819e-02 3.7815618515014648e-01</leafValues></_>
    <_>
      <internalNodes>
        0 -1 30869 4.0541455149650574e-02</internalNodes>
      <leafValues>
        5.1218155771493912e-02 -6.4160645008087158e-01</leafValues></_>
    <_>
      <internalNodes>
        0 -1 98308 -1.6553571447730064e-02</internalNodes>
      <leafValues>
        7.0760095119476318e-01 -4.7318134456872940e-02</leafValues></_>
    <_>
      <internalNodes>
        0 -1 120473 -2.4375603534281254e-03</internalNodes>
      <leafValues>
        -9.4643658399581909e-01 4.3083459138870239e-02</leafValues></_>
    <_>
      <internalNodes>
        0 -1 79156 -4.1223235428333282e-02</internalNodes>
      <leafValues>
        1. -3.5185027867555618e-02</leafValues></_>
    <_>
      <internalNodes>
        0 -1 108218 5.9377783909440041e-03</internalNodes>
      <leafValues>
        4.6331360936164856e-02 -7.6997196674346924e-01</leafValues></_>
    <_>
      <internalNodes>
        0 -1 49436 5.4000143427401781e-04</internalNodes>
      <leafValues>
        -8.1828862428665161e-02 4.0875539183616638e-01</leafValues></_>
    <_>
      <internalNodes>
        0 -1 123852 -1.3024276122450829e-02</internalNodes>
      <leafValues>
        -4.0404319763183594e-01 9.3358546495437622e-02</leafValues></_>
    <_>
      <internalNodes>
        0 -1 106620 -8.1670039799064398e-04</internalNodes>
      <leafValues>
        4.5443534851074219e-01 -7.7564746141433716e-02</leafValues></_>
    <_>
      <internalNodes>
        0 -1 72750 4.1481369407847524e-04</internalNodes>
      <leafValues>
        8.3222821354866028e-02 -4.6587806940078735e-01</leafValues></_>
    <_>
      <internalNodes>
        0 -1 4966 1.4208056963980198e-03</internalNodes>
      <leafValues>
        -8.7246000766754150e-02 3.5038512945175171e-01</leafValues></_>
    <_>
      <internalNodes>
        0 -1 88041 -1.2977252481505275e-04</internalNodes>
      <leafValues>
        -4.3379172682762146e-01 7.8221917152404785e-02</leafValues></_>
    <_>
      <internalNodes>
        0 -1 6423 1.4684548659715801e-04</internalNodes>
      <leafValues>
        -5.7361219078302383e-02 5.2142047882080078e-01</leafValues></_>
    <_>
      <internalNodes>
        0 -1 87607 5.0105573609471321e-04</internalNodes>
      <leafValues>
        4.8765569925308228e-02 -6.7055684328079224e-01</leafValues></_>
    <_>
      <internalNodes>
        0 -1 64184 -1.3816462829709053e-02</internalNodes>
      <leafValues>
        7.9886263608932495e-01 -3.9747893810272217e-02</leafValues></_>
    <_>
      <internalNodes>
        0 -1 89426 1.9104138016700745e-01</internalNodes>
      <leafValues>
        3.8091547787189484e-02 -8.1363677978515625e-01</leafValues></_></weakClassifiers></stage11>
</opencv_storage>
